SVM-light Version V6.02
0 # kernel type
3 # kernel parameter -d 
1 # kernel parameter -g 
1 # kernel parameter -s 
1 # kernel parameter -r 
empty# kernel parameter -u 
58330 # highest feature index 
1800 # number of training documents 
1348 # number of support vectors plus 1 
0.37552778 # threshold b, each following line is a SV (starting with alpha*y)
-0.0010151713723691724 144:1 174:1 284:4 359:1 600:6 879:2 1384:1 1731:1 1773:1 1977:2 2090:1 2492:1 2625:1 2797:1 3364:4 3675:1 3843:1 3895:1 4048:1 4224:1 4278:2 4300:1 5069:1 5107:1 5188:1 5583:5 6097:1 6460:1 6489:1 6747:1 7188:1 7337:1 7631:3 7674:1 8190:1 8214:2 8342:1 8925:1 9315:1 10148:1 10161:3 10411:1 10869:1 10925:1 11169:1 11217:1 11541:1 12188:1 12234:2 12305:2 12512:1 13011:1 13084:1 13438:2 13573:1 13596:1 13776:1 13952:2 14316:1 14690:1 14795:1 14809:2 15627:1 15709:1 15775:1 15822:1 15847:1 15849:1 15902:1 16213:1 16253:1 16527:1 16749:1 16963:1 17198:3 17281:2 17473:1 17516:1 17588:1 17812:1 18044:1 18132:1 18214:1 18385:1 18393:1 18506:2 18764:1 18819:1 18984:1 19109:1 19247:2 19549:2 20058:1 20176:1 20201:1 20546:1 20689:1 20927:4 21261:2 21304:1 21451:1 21586:1 21648:1 22155:1 23260:1 23906:1 24334:1 24410:1 24528:1 24667:6 24719:1 25158:1 25437:2 25605:1 25735:1 26428:1 26594:1 26936:1 27142:1 27958:1 28003:2 28343:1 28995:1 29025:1 29135:1 29226:3 29517:1 29610:2 29866:1 30106:1 30163:1 30217:2 30483:2 30690:1 30795:2 30799:1 30902:1 30991:1 31357:2 31434:2 31578:1 32122:1 32666:1 33072:2 33340:1 33551:1 33698:1 33874:1 33923:1 33975:1 34340:1 34685:1 34890:1 34953:1 34990:1 35369:1 35805:1 36060:1 36183:1 36281:1 36597:1 36752:1 36845:1 37208:1 37389:1 37806:1 37941:1 37951:1 38195:2 38627:1 38910:6 38932:1 39027:1 39065:1 39122:1 39604:2 39801:1 39868:1 40029:1 40511:1 40811:1 40943:1 40981:1 41265:1 41697:1 41942:1 42456:1 42981:1 43736:1 43742:2 43759:4 43906:1 44044:1 44178:1 44456:1 44498:1 44688:2 45028:1 45399:1 45501:1 45503:2 45514:1 45862:1 45979:2 46085:1 46094:1 46262:1 46497:1 46722:1 46827:1 46903:1 46938:1 47052:1 47521:1 47727:2 47820:1 49073:2 49243:1 49502:1 49653:1 49675:1 49799:1 50095:2 50106:2 50202:2 50249:1 50493:1 50543:13 50646:1 50652:1 50936:1 51020:1 51369:1 51823:2 52350:1 52373:2 52459:1 52774:3 52876:1 53137:1 53655:2 53697:1 54244:1 54449:2 54469:1 54633:1 54861:1 54904:1 55109:1 55439:1 55685:3 56245:1 56479:1 56568:1 56721:12 57005:1 57214:1 57313:2 57373:1 57792:1 57943:1 58071:1 58103:2 #
-0.0011175493031564015 3:2 599:1 766:1 805:2 1150:1 2288:1 3207:1 3591:1 4286:3 4300:1 4358:1 4805:1 5583:1 5735:1 6747:1 7461:1 7631:1 7700:1 10747:2 10899:1 11672:1 12234:1 13596:1 13904:1 14755:1 14938:1 15573:1 16152:1 16274:1 16438:1 17825:1 17983:1 18183:1 18594:1 18671:1 19108:1 19293:1 19623:1 19744:1 20927:2 21541:1 21606:2 22368:1 23153:1 24667:4 25343:1 27383:1 27910:1 28003:1 28696:1 28845:1 28879:1 29378:1 29419:1 30296:1 31404:1 32258:1 33540:1 34178:1 34200:1 34453:1 35004:1 35369:1 35991:1 36415:1 36822:1 37374:3 38449:1 38637:2 38697:1 38780:1 38910:3 39927:1 40487:1 41265:1 41406:1 41699:1 42243:1 42981:1 43064:1 44344:1 44688:1 45028:4 45979:1 46595:1 46756:1 46903:1 47379:1 48631:1 48696:1 48727:1 48815:1 49413:1 49675:1 50543:1 51618:1 51641:1 52774:4 52806:1 53782:1 54165:1 54449:1 54563:2 54904:3 55057:1 55214:1 55685:1 55818:1 56721:3 57443:1 57600:1 58103:2 #
-0.0011175493031564015 3:1 21:1 149:1 284:1 333:1 359:1 600:8 879:5 1560:1 1637:1 2713:1 3019:1 3352:1 3581:1 3657:1 4193:1 4278:1 4649:1 4691:2 4890:1 4938:1 5042:1 5050:1 5244:1 5254:1 5369:1 5937:1 6866:1 7188:1 7296:1 7404:1 7564:1 7706:1 8110:1 8147:1 8354:2 8970:1 9041:1 9700:1 9941:1 9958:1 10161:3 10502:1 10507:1 11149:1 11157:1 11510:1 11541:1 12002:1 12031:1 12140:1 12259:1 12305:3 13161:1 13225:1 13378:1 13438:1 13442:1 13804:1 13952:3 14373:1 14706:1 14768:1 14795:1 14809:1 14855:1 15368:1 15417:1 15516:1 15533:1 15548:1 15638:2 15721:1 15723:1 16415:1 17281:1 17381:1 17456:1 17983:1 18279:1 18336:1 18398:1 18461:1 18743:1 18779:1 19109:2 20050:1 20160:1 20205:1 20639:1 21513:1 21616:1 21652:2 21700:1 22032:1 22177:1 22947:1 23102:1 23153:1 23244:1 23365:1 24667:2 24681:1 24889:1 25112:1 25297:1 25303:1 25586:1 25710:1 26954:1 27253:1 27370:4 27408:1 27468:1 27618:1 27828:5 27958:1 28361:1 28462:1 28601:1 29425:1 29919:1 30097:1 30483:1 31143:1 31281:1 32258:1 33320:2 33482:1 33798:1 33865:1 33979:1 34229:1 34247:1 34361:1 34990:2 35239:1 35309:1 35479:3 35511:1 35711:1 35811:2 36745:1 36906:1 36921:1 37541:1 37604:1 37941:1 38306:1 38393:1 38494:1 38641:2 38910:5 39065:1 39219:1 39949:1 41125:1 41699:1 42173:1 42444:1 42572:1 42771:1 43316:1 43346:1 43680:1 43742:1 44521:1 45028:1 45503:2 45710:1 45729:2 46024:1 46544:1 47599:1 47727:1 47784:1 48226:1 48366:1 48373:2 48877:1 49243:3 49357:1 49738:3 50260:1 50543:4 50780:1 50907:1 51641:1 51652:2 51850:1 52197:2 52448:2 52774:1 53033:1 53374:1 53400:1 53457:1 53541:1 53778:1 53943:1 54469:2 54829:1 55188:2 55685:4 55830:1 55860:1 56102:1 56363:1 56721:18 56947:1 57313:2 57600:1 57825:1 58103:3 #
-0.0011175493031564015 81:1 284:1 600:1 752:1 779:1 990:1 1148:1 1272:1 1310:1 1869:1 1931:1 1977:2 2073:1 2225:1 2338:1 2385:1 2663:1 3581:1 3796:1 4146:1 4691:1 5306:1 5583:1 5610:1 5804:1 5991:1 6744:1 6747:1 7018:1 7070:1 7631:1 7754:1 7941:1 8207:1 8527:1 8925:1 9542:1 9724:1 9755:1 9925:1 9940:1 10073:1 10085:1 11541:1 12502:1 12672:1 12789:1 13084:1 13214:3 13438:1 13741:1 13863:1 14004:1 14069:1 14151:1 14258:1 14592:1 14596:1 14648:1 14768:1 14795:2 15113:1 15341:1 15417:2 15627:1 15702:1 15752:1 15849:1 15947:1 16031:1 16399:1 16640:1 17070:1 17174:2 17279:1 17983:1 18142:1 18164:1 18172:4 18446:1 18506:1 18571:1 18743:1 18795:1 18941:1 19193:1 19247:1 19256:1 19673:1 20058:1 20187:1 20927:1 20973:4 21008:1 21486:1 21684:1 21700:1 21807:1 22012:1 22358:1 22368:1 22565:1 22603:1 23102:1 23153:1 23159:1 23237:1 23665:1 24145:5 24300:1 24388:1 24889:1 25274:1 25372:1 25469:1 26116:1 26172:1 26517:1 27142:1 27277:1 27370:1 27468:1 27908:1 27958:1 28302:1 28454:1 28526:1 28550:1 28879:1 29030:1 29080:1 29954:1 29994:1 30271:1 30575:1 30692:1 31250:1 31560:1 32273:1 32540:1 32827:1 33303:3 33340:1 33356:1 33398:2 33448:1 33540:1 33560:1 33802:1 33865:1 34108:2 34223:1 34340:2 34364:1 34398:1 34673:1 34930:1 34987:1 34990:6 35239:1 35346:1 35766:2 36865:1 37673:2 37710:1 37941:1 38455:1 38627:1 38758:1 38910:2 39013:1 39353:1 39443:1 39512:1 39705:1 39790:2 39801:1 40209:1 41255:2 41858:1 41955:1 42173:1 42247:1 42267:1 42392:1 42596:1 43157:1 43438:1 43795:1 44197:1 44597:1 44633:1 44688:1 44788:1 44897:1 45062:1 45069:1 45366:1 46049:1 46254:1 46580:1 46732:1 47454:1 48608:1 48630:1 48691:1 48859:1 49173:1 49243:1 49899:1 49919:2 49963:1 50111:1 50543:4 51519:1 51548:1 51652:2 51940:1 52150:1 52155:1 52190:1 52756:1 52774:1 52847:1 52984:1 53030:1 53033:1 53250:1 53800:1 53962:1 54334:1 54449:1 54761:2 54896:1 54904:1 54966:1 55265:1 55798:1 55860:1 56338:1 56360:1 56516:1 56721:7 56844:1 57144:1 57313:1 57600:1 57653:1 58203:2 #
-9.852625242357122e-005 3:3 149:1 359:1 485:2 575:1 600:2 670:1 842:1 879:8 977:1 1046:2 1182:1 1272:1 1464:1 1674:1 1810:1 1924:1 1977:1 2112:1 2281:1 2403:1 2889:1 3005:1 3203:1 3542:1 3581:1 3800:2 3964:1 4052:1 4300:1 4527:1 4806:1 4859:1 5069:1 5242:1 5708:1 5803:1 5937:1 5972:1 6339:1 6470:5 6726:3 6747:1 6894:1 7188:1 7474:1 7600:1 7631:2 7678:1 8148:1 8214:2 8416:1 8625:1 8830:2 9687:2 9812:1 10068:1 10094:1 10161:1 10238:1 10558:2 10808:2 11280:1 11289:1 11541:2 11623:1 12259:1 12263:1 12766:1 12783:1 13084:1 13355:1 13473:1 13573:1 13693:1 13938:2 13952:2 13982:1 14212:1 14273:1 14464:1 14768:1 14986:1 15417:1 15448:1 16134:1 16253:2 16427:1 17198:3 17215:1 17217:1 17249:1 17281:1 17324:1 17464:1 17908:1 17983:1 17986:1 18398:1 18506:1 18532:1 18764:1 18771:1 18795:2 18835:1 18876:1 19247:1 19322:1 19380:1 19413:1 20176:1 20289:1 20559:1 20609:1 20825:1 20843:1 20927:2 21261:1 21286:1 21483:1 21586:1 21588:1 21652:1 21684:1 21987:1 22177:1 22368:3 22378:1 22423:3 22603:1 22844:1 23153:1 23219:1 23385:1 23593:1 23842:1 24000:2 24166:1 24481:1 24505:2 24667:2 24852:2 25696:1 25916:1 25944:1 26383:1 26391:1 26443:1 26513:1 26964:1 27176:3 27204:1 27315:1 27370:1 27958:2 28003:1 28051:1 28309:1 28317:2 28354:1 28427:1 28879:1 29097:1 29267:1 29370:1 29597:1 29610:1 30015:1 30029:1 30042:1 30111:2 30163:2 30388:1 30459:1 30769:2 30969:2 31427:1 31870:1 31935:1 31965:8 31996:1 32245:1 32530:1 32734:1 32990:1 33256:1 33291:1 33320:1 33415:1 33466:1 34203:1 34453:1 34630:1 34659:1 34990:7 35469:1 35511:2 35940:2 36139:1 36709:2 36782:1 37095:1 37367:2 37389:1 37599:1 37615:1 37708:2 37749:2 38195:1 38285:1 38517:1 38586:2 38650:2 38908:1 38910:1 39407:1 39665:1 39695:1 39961:1 40472:1 40769:1 40799:2 41367:1 41492:1 41589:1 41649:1 41697:1 41699:2 42060:1 42366:1 42403:1 42466:1 42652:1 42671:1 43268:1 43346:1 44338:1 44588:1 44688:1 44788:1 44955:4 45000:1 45465:1 45503:1 45582:1 46608:1 46886:1 47120:1 47189:2 47206:1 47263:1 47472:1 47744:1 47768:1 47793:1 47820:1 47875:1 48598:1 48615:1 49057:1 49187:1 49220:1 49357:1 49451:1 49595:1 49691:2 49973:1 50000:6 50101:1 50419:1 50456:1 50543:4 50598:1 50870:1 50907:1 51313:1 51490:1 51652:1 52094:1 52176:1 52475:1 53322:1 53523:1 53697:1 53751:1 53778:1 54002:1 54227:1 54309:1 54425:1 54650:2 54882:1 54904:1 55003:1 55261:1 55318:1 55685:4 56102:1 56134:1 56290:1 56325:1 56558:2 56666:1 56721:18 56985:1 57289:6 57313:1 57736:1 57808:1 57825:1 57952:1 58103:1 58177:1 #
0.0011175493031564015 3:1 144:1 171:1 272:1 485:1 541:1 586:1 598:1 600:5 811:1 879:1 1430:1 1773:1 1890:1 1977:1 2021:1 2033:1 2288:1 2394:1 2799:1 2953:1 3002:1 3352:1 3364:1 3517:1 3890:1 3942:1 3964:1 4317:1 4449:1 4533:1 4609:1 4642:3 4691:1 5021:1 5062:1 5107:1 5122:1 5287:1 5427:1 5458:1 5550:1 5619:1 5946:1 6231:1 6664:1 6747:1 7068:1 7567:1 7631:2 7819:1 7991:1 8092:1 8136:1 8214:1 8217:2 8668:1 9366:1 10118:1 10743:1 11161:3 11169:1 11304:1 11476:1 11690:1 11696:1 11919:1 12200:2 12263:1 12423:1 12454:1 12667:1 12919:1 13083:1 13225:1 13284:1 13322:1 13358:1 13570:1 13982:1 14034:1 14037:1 14073:1 14118:2 14227:1 14283:1 14454:1 14582:1 14596:1 14867:1 14936:1 14938:1 15352:1 15848:1 16035:1 16042:1 16148:1 16352:1 16415:1 16522:1 16825:1 16876:1 16949:2 17260:1 17324:2 17359:1 17812:1 17983:1 18328:2 18370:1 18506:1 18675:1 18795:2 18859:1 18984:1 19086:1 19144:1 19154:1 19273:1 19422:1 20036:1 20176:2 20289:1 20303:1 20340:2 20703:1 20843:2 21053:1 21075:1 21213:1 21318:1 21454:1 21463:1 21684:2 21700:2 21788:1 21827:1 21930:1 21951:1 22191:1 22218:1 22234:1 22330:1 22461:1 22603:1 22661:1 22706:1 22751:1 22989:1 23102:1 23153:1 23609:1 23941:1 24177:1 24722:1 24758:1 24889:1 25281:1 25403:1 25659:1 26191:1 26453:1 26517:1 26838:1 27455:1 28313:1 28879:3 29097:2 29205:1 29259:1 29349:2 29419:2 30172:1 30211:1 30321:1 30375:1 30624:1 30802:1 30831:1 30999:4 31140:1 31143:1 31158:1 31213:1 31235:1 31293:1 31443:1 31582:1 31719:1 31769:1 31966:1 31971:1 32122:1 32545:1 33501:1 33810:1 33811:1 33825:1 33866:2 33872:2 34133:1 34207:2 34238:1 34244:1 34340:1 34418:1 34453:1 34528:1 34814:1 34854:1 34922:1 34990:3 35030:1 35272:1 35282:1 35469:2 35713:1 35734:1 35871:1 35892:2 35940:1 35991:1 36022:1 36281:1 36531:1 36921:1 36992:1 36999:1 37019:1 37175:1 37461:1 37539:1 37574:1 37630:1 37941:1 37970:1 38195:1 38566:1 38595:1 38910:10 39065:2 39066:1 39122:1 39247:1 40481:1 40526:1 40706:1 41067:1 41079:1 41172:1 41255:1 41649:1 41699:1 41980:2 41991:1 42018:1 42573:1 42981:1 43100:1 43252:1 43265:1 43346:1 43482:1 43638:1 43742:1 43759:2 44182:1 44582:1 44688:2 44853:1 45399:1 45487:1 45503:3 45586:1 45750:1 45848:1 45878:1 46476:1 46531:1 46703:1 46830:2 46903:1 46937:1 47528:1 47767:1 48053:1 48075:1 48284:3 48678:1 48825:1 48917:1 48991:1 49264:1 49958:1 49963:1 49999:1 50106:2 50144:1 50410:2 50543:1 50553:1 51641:1 51663:1 51679:1 51998:1 52155:1 52372:1 52475:1 52647:1 52774:4 52926:1 52940:1 53031:1 53374:1 53553:4 53655:1 53949:1 54006:2 54049:1 54149:1 54469:1 54656:1 54751:2 54863:1 54904:2 55001:1 55356:1 55685:2 55766:1 55818:1 55819:3 55932:1 56013:1 56100:1 56245:1 56308:1 56705:1 56721:7 57021:1 57165:1 57354:1 57404:1 57600:1 58103:2 #
0.0011175493031564015 284:1 600:5 696:1 842:3 879:2 1004:1 1088:1 1330:1 1334:1 1354:1 1627:1 2810:1 2990:1 3005:1 3364:1 3469:1 3809:4 3886:1 4224:1 4255:1 4298:1 4631:1 4798:1 5148:1 5188:2 5549:2 5789:1 6231:1 6406:2 6586:1 6820:2 6848:1 7286:5 7631:3 7998:2 8214:1 8597:1 8920:1 9064:2 9097:1 9142:2 9315:1 9851:1 9868:1 10085:3 10161:3 10238:1 10416:1 11541:6 11999:1 12140:1 12432:4 12762:2 12767:1 12836:2 12921:1 13961:1 14092:1 14273:1 14283:1 14768:1 15120:1 15341:1 15516:1 15723:1 15878:5 16253:1 16437:2 16823:1 17198:3 17281:2 17516:1 18495:1 18519:1 18764:1 18782:1 18795:1 19037:1 19053:1 19086:1 19429:3 20176:1 20395:1 20639:1 20843:2 21486:1 21652:2 21684:1 21749:1 21864:3 21912:1 22073:1 22368:1 22709:1 22820:1 22948:1 23082:1 23102:1 23159:1 23780:1 23842:1 23901:3 24129:2 24211:1 24338:2 24379:1 24470:1 24667:2 25370:1 25400:1 25465:1 25916:1 25971:1 26231:1 26428:2 26517:1 26754:1 27250:1 27458:1 27540:2 27675:2 28108:1 28439:1 28454:2 28512:1 28618:4 28683:1 28879:1 28976:1 29038:1 29137:2 29212:9 29536:1 29542:1 29610:1 30114:2 30154:1 30375:1 30558:2 30966:1 31405:1 31612:1 31769:1 31896:1 31942:1 31966:1 32122:1 32255:1 32258:1 32598:1 33320:4 33540:1 33724:1 34146:1 34172:2 34685:1 34990:3 35239:6 35353:1 36638:2 37104:2 37215:1 37259:1 37354:1 37360:4 37541:1 37574:1 37815:1 37924:1 38027:1 38113:1 38517:1 38758:1 38805:1 38855:1 38910:3 39065:3 39504:2 39525:1 39979:1 40209:1 40487:1 40687:1 40855:2 41175:1 41255:2 41475:2 41660:1 41697:1 41699:1 41932:2 41934:1 42173:1 42573:1 42658:2 43082:1 43095:3 43643:2 44608:2 44688:1 44788:1 45028:1 45141:1 45503:2 45586:1 45934:1 45979:3 46060:1 46108:1 46544:1 46668:2 46900:1 47320:1 47379:1 47521:2 47884:1 48243:1 48422:3 48810:2 49143:1 49173:1 49496:1 49575:1 49753:1 49919:2 50106:1 50111:1 50543:1 50682:1 50879:1 51205:3 51998:1 52459:1 52547:1 52911:1 52923:1 52932:1 53160:1 53322:2 53400:2 53706:5 53843:1 53950:1 54309:2 54602:1 54904:1 55230:2 55452:4 55615:1 55685:4 55818:1 55819:2 55996:1 56459:1 56721:22 56805:1 56914:1 57313:2 57361:1 57600:1 58259:1 #
0.0011175493031564015 3:1 174:1 234:1 600:1 879:2 1228:1 1233:1 1272:2 1349:1 1490:1 1731:1 2338:1 3657:1 3745:1 3794:1 5090:2 5332:2 6795:1 6894:1 7814:1 8077:1 8190:1 8593:1 8846:1 9834:1 9925:1 10048:1 10142:1 10161:3 10507:1 10874:1 11161:2 11541:3 11575:1 11623:1 13432:1 13438:1 13938:2 14004:3 14226:1 14231:1 14272:1 14454:1 14531:2 14755:1 14936:1 15128:1 15275:1 15417:2 15447:1 15721:1 15952:2 16173:2 16274:1 16325:1 16461:1 16718:1 17198:2 17281:1 17418:1 17474:1 17983:1 18398:1 18764:1 18795:3 18984:1 19377:1 19424:1 19617:1 19890:1 19905:1 21094:1 21261:1 21684:1 21700:1 21807:1 22368:1 22750:1 22844:2 22880:1 23153:1 23823:2 24130:1 24312:1 24667:2 24681:2 24729:1 25491:1 26137:1 26156:1 26177:1 26371:1 27493:1 27910:1 27977:1 28647:2 28879:3 29038:2 29097:1 29137:1 29155:1 30045:1 30375:1 30687:1 30795:1 31492:1 31996:1 32122:1 32245:1 32526:1 33540:1 33831:1 33937:1 34331:1 34849:1 34990:1 35479:1 35546:1 36218:1 36301:1 36787:1 36822:1 36992:1 37019:1 37273:1 37389:2 37982:1 38195:1 38221:1 38336:1 38758:2 38910:3 39018:1 39065:2 39550:1 41068:1 41104:1 41181:1 41699:1 41927:2 42243:1 42498:1 42861:1 42934:1 43346:1 43548:1 43759:1 44688:1 45000:1 45028:1 45044:1 45273:1 45399:1 45503:1 45710:1 46183:1 46743:1 46754:2 46830:2 47052:1 47320:1 47356:2 47528:2 47850:1 48213:1 48422:1 48531:1 48825:1 48992:1 49213:1 49229:1 49305:1 49826:1 50543:2 50693:1 51205:1 51220:1 51931:1 52155:1 52459:1 52774:1 52991:2 53800:1 53877:1 54309:1 54449:1 55685:2 55818:1 55860:1 55996:1 56043:1 56054:1 56721:8 56987:2 57094:1 57825:2 58103:1 #
0.0011175493031564015 284:1 359:1 519:1 600:1 766:1 1011:1 1312:1 1372:1 1469:1 1515:1 1529:1 1911:1 2844:1 3741:1 3800:1 4048:1 4300:1 4631:1 6399:1 7263:1 8625:1 9315:1 11514:1 11623:2 12263:1 12305:1 12498:1 13933:1 13982:1 14764:1 15116:1 15627:1 15709:1 15752:1 15849:2 17324:1 17337:1 17983:1 18261:1 18446:1 18743:1 18795:1 18876:3 19037:1 19109:1 19154:1 19352:1 19598:2 20055:1 20927:1 21310:5 21774:2 21919:1 22477:1 22501:1 22603:1 23316:1 23629:1 23794:1 24633:1 24852:3 25465:4 26237:1 26422:1 26594:1 27270:1 27958:2 28309:1 28879:2 28957:1 29038:1 29092:1 29149:2 29437:1 30168:1 31201:1 31310:1 31854:1 31996:1 33230:1 33811:1 34317:1 34990:1 35239:1 35479:2 35511:4 36281:1 36354:1 36393:1 37970:1 37982:1 41265:1 41699:1 42521:2 43015:1 43346:2 43360:1 43742:1 44338:1 44608:1 44625:1 44776:1 45000:1 45571:1 46258:1 46289:1 46544:1 46828:1 46984:1 47380:1 47472:1 47562:1 47569:1 48121:1 48419:1 49143:1 49173:1 50111:1 50756:1 51895:1 52774:1 52874:1 53968:1 53969:1 54904:1 55487:1 55518:1 55685:1 55766:3 55818:1 55938:1 56325:1 56636:1 56721:8 58103:2 58206:1 #
0.0011175493031564015 107:1 146:2 230:1 359:2 600:1 815:1 879:2 1272:1 1431:1 1637:1 1668:1 1977:1 1985:1 2093:1 2465:1 2516:1 2527:1 3136:1 3352:2 3364:2 3587:1 3843:1 4133:1 4533:1 4574:2 5158:1 5804:1 5937:2 6245:2 6795:1 6829:1 6912:1 6964:1 7187:1 7310:1 7474:1 7600:2 7631:2 7819:1 7919:1 8041:1 8331:1 8342:1 8392:1 8646:2 8897:1 8909:1 9226:1 9548:1 10161:4 10180:1 10248:1 10259:1 10785:1 10949:1 10985:1 11131:1 11718:1 11866:1 11915:1 12161:1 12471:1 12716:1 12817:1 13084:1 13332:1 13409:1 13438:1 13499:1 13825:1 14237:8 14278:1 14428:1 14549:1 15360:1 15627:1 15824:1 15861:1 15883:1 15895:1 15981:1 16084:1 16348:2 17281:1 17983:1 18398:2 18407:1 18480:1 18506:1 18678:1 18764:3 18837:1 18993:1 19178:1 19582:1 19719:1 19729:1 19802:1 20395:1 21171:1 21220:1 21586:1 21700:1 21807:2 21919:1 22074:2 22477:1 22710:2 22773:1 23293:1 23312:1 23500:1 23885:1 24082:1 24272:3 24277:1 24667:4 24681:1 24708:1 24900:1 25238:1 25293:1 25370:1 25570:1 25696:1 26737:1 26757:1 26830:1 27670:1 27808:1 28042:1 28167:1 28601:1 28879:5 29287:1 29483:1 29542:1 29610:1 29677:10 29703:1 29743:1 30247:1 30954:1 31118:1 31404:1 31562:1 31612:1 31658:3 31659:1 32069:2 32193:1 32670:1 32691:1 32928:2 32943:1 33115:2 33320:1 33393:1 33636:1 33678:1 33775:2 34022:1 34133:1 34263:1 34453:1 34525:1 34849:1 34890:1 34946:1 34990:2 35009:1 36191:1 36250:1 36403:1 36660:1 36892:2 37001:1 37050:1 37389:1 37539:1 37604:2 37806:1 37890:1 37941:1 37982:1 38132:1 38306:1 38875:1 38910:5 38932:4 39065:2 39121:1 39194:1 39205:1 39370:1 39807:1 40380:1 40729:1 40757:1 40847:1 40860:1 40935:1 40943:2 41104:1 41161:1 41430:4 41517:1 41641:1 41729:1 41735:1 41934:1 41943:1 41991:1 42021:1 42053:1 42276:1 42361:1 42368:1 42568:1 42740:3 42981:2 43109:1 43332:1 43742:1 44054:1 44762:1 45028:1 45653:1 45737:1 45893:1 45897:1 45936:1 46049:1 46517:2 46527:1 46793:1 46940:1 47528:1 47603:1 47727:2 47960:1 48074:1 48104:1 48118:1 48243:4 48422:2 49097:1 49147:1 49243:1 49357:2 49657:1 49688:1 50106:1 50146:1 50543:1 50652:3 50801:1 50936:2 51167:1 51390:1 51469:1 52428:2 52537:1 52637:1 52647:1 52706:1 52777:1 53027:1 53354:1 53782:1 54020:1 54274:1 54297:1 54630:1 54751:1 55024:1 55627:1 55646:1 55685:2 55798:1 56013:1 56721:11 56914:2 56922:1 57040:1 57306:2 57414:1 57466:1 57502:1 57825:1 #
-0.0010296162507387081 284:1 600:2 735:1 877:1 884:1 948:1 1206:1 1692:1 1977:2 1991:1 2180:1 2625:1 2864:1 2990:1 3357:1 3580:1 3587:1 3657:1 3897:1 4357:1 4753:1 4802:1 5211:1 5249:1 5332:1 5441:1 5462:1 5879:1 5959:1 6224:1 6419:1 6586:1 6747:1 6844:1 7014:1 8018:1 8214:3 8382:1 8878:2 9158:1 9298:1 9566:1 9925:1 9973:1 10161:1 11489:1 11579:1 11696:1 12161:1 12253:1 12327:1 12675:1 12836:1 12949:1 12958:1 13138:1 13177:1 13665:1 13733:1 13871:1 13982:1 14045:1 14056:1 14428:1 14464:1 14723:1 15105:1 15116:1 15558:1 16274:1 16415:1 17099:1 17198:1 17324:1 18010:1 18308:1 18380:1 18398:1 18743:1 18764:1 18795:1 18857:1 18886:1 18941:1 20159:1 20189:1 20927:3 21237:1 21304:2 21586:1 21700:1 21706:1 21886:1 22140:1 22293:1 22368:1 22459:1 22844:1 22931:1 23102:1 23153:3 23487:1 23576:1 23609:1 23847:1 23885:1 24216:1 24431:6 24477:1 24681:1 24888:1 25235:1 25297:1 25343:1 25465:1 25510:1 25583:1 26490:1 26502:1 26757:1 26809:1 27066:2 27124:1 27283:1 27934:1 27958:1 28168:1 28454:1 28488:1 28601:2 28879:2 28983:1 29038:2 29294:1 29610:1 29808:1 30505:1 30692:1 30769:1 30877:1 31012:1 31319:1 31395:1 31480:1 31748:1 31749:1 31856:1 32122:1 32526:1 32845:1 32985:1 33291:1 33320:1 33630:1 33860:1 34029:1 34105:1 34241:1 34265:1 34377:1 34590:1 34682:1 34685:1 34735:1 34786:1 34990:4 35032:1 35369:1 35565:1 36084:1 36565:1 36822:1 36921:1 36990:1 37259:1 37389:1 37783:1 37841:1 37991:1 38195:1 38306:1 38432:1 38517:1 38731:1 38758:1 38860:1 38910:4 38946:1 39065:2 40713:1 40816:1 41242:1 41303:1 41421:1 42173:1 42243:1 42613:1 42618:1 42651:1 42771:1 43135:1 43210:2 43906:1 44236:1 44271:1 44597:1 44633:1 44788:1 44857:1 45271:1 45675:1 45875:1 46039:1 46187:1 46544:2 46836:1 47105:1 47528:1 47705:1 47714:1 47727:1 47746:1 47990:1 48002:1 48308:1 48562:1 48630:1 48683:1 48815:1 49173:1 50106:1 50111:1 50419:1 50427:1 50543:1 50936:1 52144:1 52185:1 52246:1 52459:1 52774:2 52882:1 52924:1 53086:1 53290:1 53353:1 53666:1 53796:1 53912:1 54206:1 54317:1 54449:2 54465:1 54751:1 55281:1 55685:1 55818:1 56016:1 56637:1 56721:7 56780:1 56819:1 57129:1 57634:1 57825:1 #
0.0011175493031564015 3:1 128:2 333:1 487:1 533:1 600:5 879:5 887:1 1650:1 1674:2 1731:1 2077:1 2990:1 3517:1 3581:1 3796:1 3800:1 4022:1 4048:1 4057:1 4179:2 4202:1 4224:1 4273:1 4524:1 5652:1 5777:1 5937:1 6028:1 6107:1 6580:1 6709:1 6978:1 7028:1 7361:1 7474:1 7631:2 7941:1 8651:1 8732:1 9043:1 9436:1 9503:1 9687:1 9700:1 9827:1 9851:1 9891:2 10377:1 10627:1 11541:5 11570:1 11575:7 11698:1 12497:1 12561:1 13614:1 14032:1 14088:1 14231:1 14580:1 14755:2 15341:1 15417:1 15529:1 15555:1 15627:1 15712:1 15885:1 15929:1 16035:1 16236:1 16621:1 16876:2 16927:1 17198:1 17408:1 17948:1 18279:1 18398:1 18404:1 18446:1 18461:1 18795:1 19002:1 19422:1 20289:1 20522:1 20639:1 20927:2 21094:2 21468:2 21586:1 21646:1 21684:1 21774:2 21807:1 22115:2 22177:1 22386:1 22603:2 23153:1 24019:1 24065:1 24669:1 24852:1 25058:1 25952:1 26128:1 26186:1 26517:1 26567:1 26634:1 27169:1 27270:2 27283:1 27318:1 27734:1 28003:1 28705:1 28731:1 28879:1 29097:1 29294:2 29656:1 30375:2 30687:1 30882:1 31103:1 31292:1 31434:1 31496:1 31765:1 31920:2 31966:1 31996:1 32056:1 32297:1 32879:1 33051:1 33072:1 33678:1 33865:1 34388:1 34481:2 34578:1 34630:1 34940:1 34990:2 35032:2 35175:1 35369:1 35435:1 35479:3 36292:1 36354:1 36613:1 36734:1 36755:3 36848:1 37384:1 37389:2 38063:1 38080:1 38662:1 38758:1 38869:1 38910:1 38918:1 39065:1 39187:1 39509:1 39960:7 40102:1 40233:1 40415:1 40816:1 40911:1 42173:2 43112:1 43252:1 43424:1 44041:1 44236:1 44362:1 44551:1 44778:1 44853:3 44897:1 45399:1 45446:1 45502:1 46049:1 46716:1 47119:1 47150:1 47405:1 47685:1 47727:1 47968:1 48159:1 48298:1 48991:1 49213:1 49357:1 49653:1 49919:2 50106:1 50543:1 50614:1 50641:1 50932:2 50955:1 51020:1 51652:1 52155:1 52190:1 52490:1 52774:1 52794:1 52858:1 52882:1 52949:1 53393:1 53778:1 53912:1 54058:1 54219:1 54469:2 54742:1 54751:7 54836:1 54877:1 55685:1 55818:1 55825:1 56395:1 56636:1 56721:16 56936:1 57089:1 57313:1 57419:1 57600:1 57825:1 57880:1 57902:1 57937:1 58265:1 #
-0.0011175493031564015 3:1 44:1 78:1 146:1 206:1 272:3 284:2 410:1 494:1 512:1 600:24 650:2 766:1 815:5 874:1 879:16 884:2 902:2 1493:1 1668:1 1731:1 1944:1 1952:4 1977:1 2064:1 2093:1 2191:1 2365:1 2536:1 2615:2 2846:1 3005:1 3352:1 3364:3 3462:2 3497:1 3843:2 3848:1 3862:2 3895:1 4300:1 4317:1 4440:1 4566:1 4626:1 4631:1 4999:1 5107:1 5377:1 5381:1 5498:1 5615:2 5789:1 5804:4 5946:4 6109:1 6330:1 6563:1 6617:1 6636:1 6677:1 6691:1 7115:1 7366:1 7430:1 7437:1 7474:1 7499:1 7631:10 7703:1 7941:1 8136:1 8331:1 8448:1 8514:1 8552:1 8644:1 8686:3 8801:2 8850:1 9147:1 9377:1 9455:1 9534:1 9659:2 9893:7 9933:1 10085:1 10161:5 10238:1 10444:1 10450:1 10479:1 10502:3 10581:1 10747:1 10884:1 10985:1 11161:5 11462:4 11509:1 11514:1 11541:5 11970:1 12003:1 12117:1 12179:2 12223:1 12459:1 12558:1 12634:1 12680:1 12836:2 12865:1 13084:1 13140:1 13266:1 13314:2 13345:1 13368:1 13379:1 13432:2 13514:1 13688:1 13776:1 14013:1 14119:1 14231:2 14258:1 14283:2 14289:1 14414:1 14454:2 14531:1 14582:1 14596:2 14690:1 14755:1 14758:1 14768:1 14832:1 15051:2 15066:1 15113:2 15128:1 15417:4 15627:1 15721:1 15805:1 15849:2 15902:2 15950:1 15980:1 16482:1 16551:1 16611:1 16795:1 17036:1 17122:1 17198:1 17264:1 17281:1 17324:4 17406:1 17544:1 17983:2 18060:1 18067:2 18168:1 18212:2 18229:1 18360:1 18382:1 18506:2 18626:1 18764:5 18795:2 18868:14 18984:1 19034:1 19109:2 19317:1 19429:1 19542:1 19549:2 19651:2 19670:1 19891:1 19966:1 20176:2 20178:1 20225:1 20289:1 20340:1 20410:1 20617:1 20639:1 20843:1 20927:3 21079:1 21182:1 21451:1 21543:1 21586:2 21588:1 21652:1 21684:6 21700:2 21749:1 21919:2 22115:1 22368:1 22432:1 22467:1 22477:1 22603:1 22626:1 22777:1 22989:1 23015:1 23062:1 23153:1 23159:1 23245:1 23365:1 23389:5 23530:1 23619:1 23764:1 23823:1 24177:1 24195:1 24308:1 24326:1 24334:1 24388:1 24488:5 24548:1 24559:1 24732:1 24852:3 25112:1 25182:1 25297:1 25347:1 25370:2 25465:1 25548:1 25577:3 25580:2 25971:1 26006:2 26275:1 26447:1 26503:1 26594:1 26734:1 26769:1 26833:1 26877:1 26889:1 26944:1 27010:1 27124:1 27142:4 27388:1 27469:1 27885:1 27934:1 27958:1 28108:1 28168:1 28314:1 28432:2 28529:1 28539:1 28879:9 28939:1 28957:1 29032:1 29040:2 29044:1 29056:1 29097:2 29468:1 29610:1 29891:1 30146:1 30363:1 30375:1 30381:1 30614:1 30731:1 30778:1 30795:1 30852:1 30914:1 30917:1 31087:2 31336:1 31583:1 31731:1 31923:1 31966:3 32258:1 32297:1 32329:6 32548:1 32574:1 32858:1 32990:1 33000:1 33217:1 33280:2 33320:1 33442:1 33540:2 33755:1 33865:5 33975:1 34065:1 34418:1 34476:1 34621:1 34832:1 34907:1 34990:11 35013:2 35382:1 35469:3 35479:1 35486:1 35858:1 35871:3 35940:1 36133:1 36198:1 36597:1 36637:1 37127:1 37389:3 37415:3 37495:1 37539:2 37599:1 37970:3 38038:1 38062:1 38087:1 38221:1 38517:1 38720:1 38910:2 39065:5 39198:1 39213:1 39298:1 39504:2 40011:1 40088:1 40233:1 40404:1 40729:1 40799:1 40839:1 40943:1 41209:1 41319:1 41368:3 41442:1 41699:2 41724:1 41735:1 41849:2 41891:1 42005:1 42011:1 42173:1 42243:2 42404:1 42573:1 42771:2 42778:1 43100:1 43226:1 43742:1 43759:1 43844:1 43906:1 44009:1 44044:1 44111:1 44178:1 44534:2 44606:1 44633:2 44670:1 44674:1 44688:4 44747:1 44788:1 44853:1 45182:2 45345:3 45399:2 45503:5 45750:2 45845:1 45897:1 45979:1 45998:1 46049:1 46094:1 46255:1 46258:1 46476:1 46578:1 46608:2 47052:1 47059:1 47119:1 47234:1 47403:1 47437:1 47442:1 47528:1 47536:1 47727:1 48315:1 48422:2 48445:1 48490:1 48531:1 48564:1 48833:1 49012:1 49073:1 49123:1 49147:1 49173:1 49229:1 49243:1 49357:2 49443:2 49642:3 49653:1 49919:3 50106:6 50163:1 50419:1 50456:1 50461:1 50467:1 50520:1 50543:6 50641:1 50675:1 50801:2 50879:3 50936:1 51103:1 51346:1 51676:1 51698:1 51740:1 51850:1 51878:2 51904:1 51996:2 52094:1 52155:1 52278:1 52373:1 52459:4 52492:1 52629:1 52999:1 53037:4 53136:1 53312:1 53388:5 53621:3 53778:1 53880:1 53912:1 53943:2 54165:1 54240:2 54309:1 54449:5 54546:1 54588:5 54616:1 54642:1 54696:2 54861:1 55019:1 55109:2 55685:4 55766:1 55818:3 56029:1 56348:1 56459:1 56716:1 56721:33 56911:1 57165:1 57205:1 57465:1 57600:2 57673:1 57703:1 57825:2 58103:2 58125:1 58203:2 58291:1 58296:1 #
0.0011175493031564015 181:1 600:1 1160:1 1668:1 1741:1 2714:1 2991:1 3005:1 3352:1 3725:1 3964:1 4451:7 4627:1 4865:1 4985:1 5042:2 5107:1 5381:1 6064:1 7574:1 7865:1 8202:1 8966:1 9545:1 9986:1 10161:2 10354:1 10444:1 10502:1 10757:1 11462:1 11525:1 11776:1 12057:1 12400:2 12471:1 13084:1 13214:2 13438:2 13507:1 14436:1 14928:1 15318:2 15417:1 16031:1 16236:1 17174:1 17198:1 18002:1 18213:1 18424:1 18736:1 20474:1 20786:1 21019:1 21091:1 21199:4 21304:1 21432:1 21454:2 21586:1 22378:1 22477:1 22626:1 22950:1 23764:1 24083:1 24107:1 24559:1 24667:1 24711:1 25372:1 25465:1 25867:2 26240:1 27831:1 27958:1 28309:1 28526:1 28780:1 28787:1 28879:1 29610:1 29798:1 30692:1 30999:3 32122:1 32123:1 32620:1 32785:1 32836:1 32851:1 32858:1 33230:1 33339:1 33540:1 33865:3 34076:1 34650:1 34953:1 34990:1 35239:1 35486:1 35511:1 35900:1 36250:1 37353:1 37599:1 37977:1 38266:1 38384:1 38517:1 38809:1 39001:1 39013:1 39125:1 39161:1 39664:1 40803:1 40964:1 41955:1 42005:1 42725:2 42901:1 42981:1 43742:1 43869:3 44928:1 45440:1 45833:1 46273:1 46708:1 47052:1 47206:1 47221:1 47263:1 48072:1 49243:1 49262:3 50260:1 50946:1 51263:1 51960:1 52099:1 52197:1 52774:1 53322:1 54007:1 54309:1 54629:1 54904:1 55232:1 55356:1 55646:1 55685:1 55935:1 56002:1 56721:5 57691:1 #
-0.00056032078639818041 3:2 128:2 133:1 359:1 557:1 600:17 670:2 811:1 815:2 879:7 884:2 977:1 1046:3 1098:1 1206:1 1271:3 1272:1 1293:1 1306:1 1412:1 1522:1 1668:1 1777:1 1789:1 1911:1 1977:2 2021:1 2321:1 2608:1 2714:1 2811:1 2812:1 2990:1 3005:2 3029:1 3036:1 3154:1 3352:1 3462:1 3494:1 3655:1 3664:1 3843:1 3895:1 4006:1 4044:1 4049:1 4150:2 4179:1 4300:4 4315:1 4331:3 4386:2 4462:3 4497:1 4502:1 4559:1 4691:1 4802:1 4821:1 4860:6 5107:1 5337:1 5403:1 5610:1 5615:1 5804:2 5937:2 6010:1 6099:1 6132:1 6134:1 6231:1 6233:1 6310:1 6378:2 6693:1 6778:1 6787:1 6801:1 6898:1 6939:1 6997:1 7016:1 7076:1 7364:2 7409:1 7454:1 7490:1 7600:2 7631:4 7692:2 7747:1 7813:1 8042:1 8202:1 8214:1 8354:1 8547:1 8597:1 8833:1 8897:1 8996:1 9064:1 9098:1 9110:1 9140:1 9188:1 9274:1 9315:1 9338:1 9436:1 9501:1 9700:2 9851:1 9887:1 9965:1 10028:1 10034:1 10068:1 10121:2 10153:1 10161:5 10332:1 10401:1 10474:1 10558:1 10741:1 10747:3 10750:1 10935:1 10947:1 10977:1 11177:1 11208:1 11275:1 11289:1 11337:1 11377:1 11419:1 11462:1 11471:1 11541:2 11629:1 12002:1 12026:1 12031:1 12098:5 12304:1 12374:2 12432:4 12471:1 12497:1 12500:1 12561:2 12779:1 12905:1 12942:2 12958:1 13049:6 13332:1 13333:2 13438:1 13586:1 13978:1 14175:2 14194:1 14231:1 14258:1 14283:1 14344:2 14454:3 14670:1 14690:1 14755:1 14811:1 14824:1 14835:1 15002:1 15128:1 15247:1 15299:1 15417:2 15728:1 15737:1 15809:1 15834:1 15905:1 15971:1 16214:1 16395:2 16427:1 16599:3 16703:1 16718:1 17115:1 17118:1 17198:3 17217:1 17228:1 17281:1 17318:1 17324:5 17329:1 17333:1 17408:2 17463:1 17516:1 17535:1 17795:1 17983:2 18201:2 18214:1 18244:2 18500:1 18506:2 18520:1 18578:1 18626:1 18743:1 18749:1 18764:2 18834:1 18876:1 18984:2 19037:1 19046:1 19153:1 19173:3 19247:1 19262:1 19303:2 19377:1 19395:1 19522:1 19549:4 19651:1 19730:1 19771:1 19842:1 19946:2 20058:2 20091:1 20097:1 20176:1 20282:2 20289:4 20340:5 20383:3 20387:4 20443:1 20578:1 20843:1 20857:1 20897:1 20927:4 20928:4 21220:1 21231:1 21261:1 21318:1 21454:1 21468:1 21586:5 21588:1 21684:4 21700:3 21746:1 21815:1 21919:1 21963:1 21972:1 22014:1 22378:1 22477:1 22603:2 22719:1 22844:1 22868:1 22948:1 22950:1 22983:1 22989:1 23153:5 23259:1 23455:1 23500:1 23609:1 23842:1 23869:1 24035:1 24177:1 24308:1 24352:1 24356:1 24559:1 24587:1 24667:7 25317:1 25369:1 25370:1 25378:1 25458:1 25460:2 25465:1 25527:1 25570:6 25577:1 25696:2 25706:1 25813:1 25824:1 25851:4 25916:1 26035:1 26121:1 26151:3 26154:1 26375:1 26391:1 26454:1 26585:1 26590:1 26592:1 26735:1 26778:1 26809:1 27060:1 27103:1 27119:1 27176:1 27250:2 27469:1 27493:1 27558:1 27617:1 27618:1 27751:1 27795:2 27958:1 28003:4 28221:1 28309:1 28511:1 28515:1 28526:3 28550:1 28761:1 28879:9 28959:1 29097:1 29132:1 29135:1 29149:1 29150:1 29201:2 29226:1 29287:1 29329:1 29419:4 29438:4 29451:1 29528:1 29610:3 29860:1 29866:2 30179:1 30226:1 30437:4 30483:2 30508:1 30584:1 30692:2 30731:3 30801:5 30875:1 30878:1 30909:1 30996:1 31153:3 31173:1 31206:1 31219:1 31291:1 31310:1 31357:1 31404:1 31559:1 31733:1 31769:2 31791:5 31854:2 31896:1 32006:1 32123:1 32188:1 32236:1 32258:2 32350:1 32598:1 32679:1 32731:1 32818:2 32833:1 32942:1 32990:1 33118:1 33163:1 33418:1 33433:1 33463:1 33492:1 33514:1 33540:1 33724:1 33755:1 33811:1 33860:2 33969:2 33986:1 34025:2 34061:1 34065:3 34200:2 34222:1 34340:1 34348:1 34548:1 34553:1 34650:1 34685:2 34795:1 34849:2 34884:1 34890:1 34953:1 34990:8 35001:1 35056:1 35441:2 35469:1 35476:2 35486:2 35565:1 35591:1 35608:1 35704:1 35711:2 35871:1 36028:1 36046:1 36240:1 36257:1 36281:1 36367:1 36467:1 36759:1 36805:1 37019:1 37025:1 37045:1 37083:1 37104:1 37128:1 37145:1 37171:1 37389:4 37422:1 37630:12 37710:2 37752:1 37902:1 37941:1 37945:1 37982:1 38026:1 38144:1 38156:1 38195:3 38213:1 38249:1 38297:1 38306:1 38433:1 38443:1 38614:1 38860:1 38903:1 38910:10 39062:1 39065:2 39187:2 39213:1 39219:2 39312:1 39504:1 39559:1 39604:1 39658:1 39664:1 39735:1 39774:1 39995:1 40055:1 40290:1 40610:1 40753:1 40852:1 40897:1 40948:1 41054:1 41181:1 41204:1 41265:1 41285:2 41302:1 41594:1 41697:1 41699:1 41756:1 41760:1 41807:1 41858:1 41934:1 41991:1 42015:1 42060:1 42336:1 42534:1 42572:1 42628:2 42771:1 42802:1 42981:3 43317:1 43346:2 43437:1 43505:2 43601:1 43736:1 43742:2 43759:2 43782:1 44182:1 44304:1 44332:1 44338:1 44362:1 44597:1 44686:1 44688:1 44776:2 44788:1 44853:1 45156:1 45213:1 45434:1 45481:3 45491:3 45503:4 45675:2 45750:1 45947:1 46249:1 46312:1 46476:2 46500:1 46544:2 46605:1 46830:1 46873:1 46903:1 47029:1 47060:1 47221:1 47372:1 47528:1 47599:1 47727:3 47844:1 47850:1 47887:17 47983:1 47988:1 48036:1 48213:1 48326:1 48377:1 48422:2 48521:1 48543:1 48809:1 48819:1 48991:1 49011:1 49012:1 49143:1 49229:1 49268:1 49357:1 49653:5 49687:1 49712:1 49919:3 50003:1 50055:1 50106:1 50202:1 50419:3 50520:1 50543:6 50652:1 50682:1 50907:1 50936:2 51120:1 51240:1 51263:2 51267:1 51285:1 51310:1 51367:1 51676:1 51852:1 51976:1 51995:1 52010:1 52059:1 52259:3 52335:1 52413:1 52671:1 52774:4 52806:1 52930:1 52958:1 53073:1 53201:1 53332:1 53367:1 53388:1 53563:1 53630:1 53782:1 53796:1 53871:1 53904:1 53924:1 53943:1 54037:1 54165:1 54250:2 54309:1 54398:1 54449:2 54569:1 54656:2 54679:2 54904:1 55109:2 55261:1 55263:1 55383:1 55503:1 55569:1 55627:1 55685:6 55775:1 55798:1 55807:1 55818:3 55860:3 55996:1 56002:1 56096:1 56258:4 56290:1 56310:1 56347:1 56721:31 56745:1 56851:1 56889:1 56947:3 56973:1 57051:1 57116:1 57157:1 57420:4 57441:1 57469:1 57600:2 57603:2 57792:1 57794:1 57825:2 57829:1 57920:1 57952:1 57987:2 58069:1 58103:1 58112:1 58162:1 58209:1 58252:1 #
0.0011175493031564015 284:1 600:5 713:1 879:3 1046:1 1469:1 1911:1 1943:1 2027:1 2093:1 2455:1 2492:1 2889:1 2990:1 3005:2 3350:1 3352:1 3412:2 4017:1 4224:1 4249:1 4300:3 4650:1 4691:1 4737:2 4802:1 5062:1 5237:1 5789:1 6134:1 6183:1 6419:1 6571:1 6747:1 7366:1 7478:1 7548:1 7700:1 8153:1 9185:1 9334:1 9484:1 9548:1 9958:2 10142:3 10238:1 10382:1 10653:1 10743:1 11040:1 11541:1 12223:1 12234:1 12458:1 12504:1 12752:1 12905:1 13438:1 13592:5 13934:1 14048:1 14755:1 14985:1 15046:1 15784:1 15843:1 15847:2 15880:3 16214:1 16427:1 16674:1 16963:1 16964:1 17198:4 17303:1 17310:1 17812:1 17983:1 17991:1 18132:1 18148:1 18360:3 18370:1 18506:1 18764:3 18789:1 18984:1 19095:4 19413:2 19441:1 20176:2 20289:1 20682:1 20721:1 20812:1 20927:6 21062:1 21261:1 21318:1 21684:1 21700:1 21815:1 22423:1 22462:1 22603:1 22726:1 23153:1 23677:1 23906:1 23910:1 23954:1 24541:1 25370:2 25702:1 25916:1 25929:1 26532:1 26585:1 26594:1 26611:1 26668:1 27142:1 27812:1 27958:2 28041:1 28432:1 28454:1 28531:1 28569:1 29332:1 29524:1 29610:1 29860:1 30163:2 30483:2 30532:1 30551:1 30615:1 30692:1 30844:1 30988:1 31357:1 31996:1 32122:1 32123:1 32154:1 32833:1 33221:1 33540:2 33865:1 34849:1 34897:1 34990:2 35239:2 35511:3 35577:1 35711:2 35940:1 36091:1 36348:1 36665:1 36921:1 37259:1 37389:3 37899:1 38221:1 38576:1 38818:1 38860:1 38910:2 39037:1 39065:1 39116:1 39219:1 39440:1 39504:1 40029:1 40088:1 40729:2 40769:2 40981:1 40985:1 41367:1 41581:1 41697:1 41699:3 41826:1 41976:1 42444:1 43003:1 43178:1 43194:1 43280:1 43346:1 43586:1 44019:1 44044:1 44534:1 44633:1 44688:1 44857:1 45076:1 45503:2 45675:1 45979:1 46183:1 46543:1 46953:1 47379:1 47482:1 47561:1 47704:1 47742:1 47822:1 48280:1 48310:1 48445:2 48833:1 49073:1 49123:1 49143:1 49243:6 49462:2 49469:1 49675:1 49837:2 49963:1 50106:2 50202:1 50301:1 50419:1 50494:1 50543:10 50579:1 50652:1 50936:1 51205:1 51416:1 51652:1 51740:1 51878:1 51976:1 52155:2 52674:1 53033:1 53745:2 54082:1 54240:1 54449:1 54594:1 54864:1 55261:3 55452:1 55458:2 55468:1 55472:1 55685:1 55818:1 55895:1 55909:1 56157:1 56164:1 56721:6 57102:1 57313:1 57426:1 57838:1 58071:1 58103:2 58121:1 58203:1 #
0.0011175493031564015 21:1 284:1 359:5 879:6 1272:1 2126:1 2536:1 2847:1 2885:1 2903:1 3005:2 3040:1 3596:1 3771:1 3843:1 3895:1 4300:2 4598:1 5054:1 5237:1 5547:1 5618:1 5789:1 5937:1 5943:1 6115:1 6142:1 6164:1 6353:1 6460:1 6484:1 6536:1 6726:2 7014:1 7474:1 7564:1 7631:1 7819:1 8533:1 8567:3 8713:1 8783:1 8801:1 8876:1 9687:2 10015:1 10045:1 10116:1 10238:1 10311:1 11217:2 11242:1 11275:1 11510:1 11541:1 11572:1 11586:1 11617:1 12512:1 12526:1 12769:1 14803:1 15066:1 15126:3 15276:1 15303:1 15417:1 15508:1 15525:1 16285:1 16361:1 16963:1 17516:1 17727:1 18043:1 18279:1 18506:1 18570:1 18626:1 18795:2 18983:1 18984:1 19352:2 19549:1 20329:1 20818:1 20825:1 20927:3 21324:1 21579:1 21586:1 21596:1 21616:2 21652:1 21700:1 21807:1 22097:1 22153:1 22218:1 22368:1 22467:1 22501:1 22603:1 22740:1 22851:1 23885:2 24026:1 24035:1 24667:6 24682:1 24807:1 25285:1 25491:1 25944:1 26428:2 26571:1 26584:1 27474:1 27633:3 27958:1 28082:1 28525:1 28699:1 28879:1 29226:1 30017:2 30097:1 30130:1 30483:1 30744:1 30918:1 31555:1 31592:1 32555:1 32558:1 32610:1 32657:1 32853:1 33051:1 33171:1 33189:1 33320:1 33367:1 33384:1 33540:1 33866:1 34200:1 34580:1 34685:1 34849:2 34886:1 34950:1 34990:3 35230:1 35511:4 35711:1 35805:1 36028:1 36138:1 37389:1 37783:2 37928:1 37982:1 38285:1 38517:2 38831:1 38906:1 39065:1 39116:1 39219:1 39664:1 39949:1 40911:1 41175:1 41181:1 41699:3 41844:1 42232:1 42243:2 42414:1 43067:1 43742:1 44044:1 44362:1 44628:1 44688:2 44955:1 45127:1 45340:1 45731:1 45842:1 46544:1 46774:2 47059:2 47503:1 47507:1 47685:1 48259:1 48403:1 49173:4 49653:1 50448:2 50543:6 50641:1 50671:1 51126:2 51263:2 51285:1 51363:1 52004:1 52287:1 52434:1 52806:1 53446:1 53488:1 53745:1 53943:1 54301:1 54510:1 54810:1 55685:2 55783:1 56721:8 56964:1 57311:1 57313:2 57417:1 57688:1 57825:1 57987:1 #
0.0011175493031564015 600:3 792:1 897:1 977:1 1454:1 1529:1 1589:2 1911:1 1943:1 2046:1 2833:1 2844:1 3005:2 3352:1 3364:1 3435:2 3521:2 3524:1 4300:1 4331:1 4386:2 4497:1 4502:1 4805:1 4837:1 5227:1 5303:1 5937:2 6038:1 6286:1 6399:1 6460:1 6602:3 6747:3 6894:1 6964:1 6997:1 7369:1 7458:1 7631:3 8151:1 8342:1 8354:1 9161:1 9299:1 9306:1 9597:1 10055:1 11180:1 11217:1 11510:1 11541:3 12367:1 12573:1 12675:1 12942:1 12958:1 13332:1 13982:1 14114:1 14227:1 14435:1 14576:1 14768:1 15360:1 15721:1 15825:1 16351:1 16352:1 16599:1 17198:1 17249:1 17277:1 17290:1 17324:1 17544:1 17560:1 17703:1 17812:1 18103:1 18196:8 18255:1 18385:1 18398:2 18519:1 18532:1 18669:1 18764:5 18876:2 19086:1 19109:2 19465:1 19549:1 20843:1 20897:3 20927:5 21451:1 21544:1 21586:1 22477:1 22603:2 22723:1 23102:1 23153:1 23259:1 23316:1 23681:2 23705:1 24277:1 24667:1 24946:1 25342:2 25944:1 26428:1 26468:1 26497:9 26778:1 27023:1 27283:1 27342:1 27370:13 27448:1 27533:1 28384:1 29227:1 29287:1 29419:1 29437:1 29465:1 29940:1 30017:2 30483:1 31151:1 31718:1 31799:1 31996:1 32122:2 32610:1 32773:1 33285:3 33540:2 33798:3 33865:1 34172:1 34200:1 34340:1 34444:1 34864:1 34990:2 35225:1 35230:1 35431:1 35505:1 35511:2 35711:1 35833:1 35900:1 35940:1 36281:2 36598:1 36886:1 36905:1 36921:1 37193:1 37351:1 37389:1 37415:1 38205:1 38240:1 38443:1 38517:1 38627:1 38673:1 38910:3 39020:1 39065:4 39079:1 39312:1 39430:1 39604:1 39664:1 40270:1 40610:1 40687:1 40769:1 40816:1 41255:1 41699:1 42055:1 42243:1 42587:1 42699:1 42981:1 43028:1 43563:3 43929:1 44362:1 44536:1 44608:2 44688:1 45483:1 45503:1 45631:1 45934:1 45979:1 46109:1 46544:1 46606:1 47714:1 47838:1 48243:1 48422:1 48771:1 48779:1 49143:1 49243:1 49357:1 49630:1 49683:1 49919:2 49950:1 49956:1 50202:1 50304:1 50419:1 50543:15 50632:1 51105:1 51120:4 51376:1 51740:1 51850:1 52010:1 52373:1 52774:1 52932:1 52958:1 53371:1 53751:3 53943:3 53961:1 54040:1 54449:1 54469:1 54588:1 54751:1 54773:1 55109:1 55685:2 55820:1 55860:1 55938:1 56102:1 56328:1 56363:1 56721:16 56818:1 57306:1 57313:1 57825:2 #
0.0011175493031564015 6:1 359:1 600:8 670:2 879:1 1977:1 2394:3 2694:1 3005:3 3053:1 3232:1 3580:1 3581:1 3800:1 3886:1 3911:1 4286:1 4300:1 4331:1 4497:1 4737:1 4897:2 5042:1 5267:1 5602:1 5946:1 6099:1 6586:1 6747:2 7188:1 7631:1 8713:1 9315:2 9466:2 9893:1 10094:1 10161:1 10502:1 11525:2 11541:1 11728:1 12091:1 12836:1 13499:1 13952:1 13982:1 14196:1 14273:1 14575:1 15046:2 15328:2 15849:1 16217:1 16437:1 16963:1 17164:1 17174:1 17281:1 17413:2 17496:1 17535:1 17864:1 17983:2 18206:1 18370:1 18506:1 18652:1 18764:1 18795:1 19317:1 20058:2 20289:1 20563:2 20843:1 20896:1 20927:5 21451:1 21497:1 21631:1 21639:1 21868:3 21956:1 22723:1 22930:1 22973:1 23079:1 23102:1 23153:3 23267:1 24102:1 24667:1 24711:2 24852:1 25403:1 25465:1 25696:1 25968:1 26020:2 26422:1 26612:1 26700:1 27010:1 27124:1 27659:1 28140:1 28432:1 28454:1 28526:1 28601:1 29156:1 29610:1 29710:1 29866:1 30137:1 30670:1 30730:1 30733:1 30907:1 30936:1 31357:1 31612:1 31854:1 32006:1 32123:1 32487:1 32514:1 32634:2 32679:1 32706:1 32950:1 33320:1 33617:1 33849:1 34228:1 34990:1 36028:1 36256:1 36281:1 36804:1 37220:1 37539:1 37970:1 38195:1 38910:2 39065:1 39219:1 39278:1 39298:1 39444:1 39572:1 39992:1 40290:1 40294:1 41175:1 41699:1 42243:3 42466:1 42981:2 44362:1 44688:1 44931:1 45503:1 45641:2 46049:1 46079:2 46511:2 46544:3 46702:1 47060:1 47685:1 47727:1 47916:1 48184:1 48350:1 48815:1 49191:1 49229:1 49653:1 49919:1 50543:9 52259:2 52413:1 52459:1 52774:2 53388:2 54449:2 54642:1 55025:1 55646:1 55685:1 55766:1 55818:1 56013:1 56395:1 56721:7 56761:1 57825:2 58103:3 #
-0.0011175493031564015 148:1 1042:1 1542:1 2990:1 3364:1 3964:1 4060:1 4224:1 4298:1 4566:1 4737:1 5042:1 5707:1 6866:1 7822:1 8067:1 8794:1 10009:1 10118:1 10161:1 10569:1 12881:1 13291:1 13674:1 14755:1 15108:1 15516:1 15567:1 15620:1 15947:1 16389:1 16579:1 18546:1 19311:1 19929:1 20843:2 20927:1 21167:1 21700:1 21807:1 21958:1 22477:1 22603:1 22931:1 24593:1 25437:1 26698:1 27618:1 27659:1 29205:1 29258:1 30053:1 31404:1 31971:1 32666:1 33395:1 33547:1 34135:1 34849:1 35239:1 35290:1 35479:1 35900:1 36211:1 36921:1 37084:1 37670:1 37732:1 37777:1 37984:1 38560:1 38644:1 38910:4 39604:1 39883:1 39959:1 40088:2 41064:1 41161:1 41697:1 43563:1 43726:1 44344:1 46527:1 46732:1 47599:1 47704:1 47840:1 47857:1 48261:1 49215:1 49236:1 49243:1 49653:1 49675:1 49919:1 50111:1 50400:1 50567:1 51697:1 52796:2 53404:1 53756:1 54151:1 54496:1 54510:1 56134:2 56721:2 56932:1 57072:1 57577:1 57600:2 57635:1 58103:1 #
-0.0011175493031564015 284:1 306:1 600:1 2475:1 3057:1 3078:1 3276:1 3352:1 7350:1 8195:1 8653:1 9464:1 9862:1 9899:1 11353:1 12872:1 14951:2 14974:1 15106:1 15374:1 15812:1 15849:1 15959:1 16227:1 18460:1 18764:1 19413:1 19598:1 19668:1 19698:1 20956:1 22010:1 22368:1 22846:1 23068:1 23153:1 24517:1 26428:1 27370:1 28074:1 28309:1 28454:1 29231:1 31932:1 31996:1 32258:1 32548:1 33234:1 33975:1 35197:1 35239:1 35369:1 35586:1 35871:1 36139:1 36566:1 36770:2 38746:1 38910:1 40966:1 42299:1 43742:1 44537:1 45710:1 45731:1 46049:1 46545:1 47599:1 48066:1 49163:1 49243:1 51191:1 51330:1 52176:1 53400:1 54449:1 54930:1 55281:1 56474:1 56721:1 57165:1 57195:1 57469:1 58141:1 #
-0.000972065529837002 284:1 1214:2 1412:1 1668:1 1739:1 2306:1 3005:1 3342:1 3904:1 4035:1 4737:1 6035:1 6156:1 6664:1 6740:1 7364:1 7732:1 7827:1 7941:1 8035:1 8214:1 8538:1 8651:1 8850:1 9338:1 10167:2 10332:1 10555:1 10750:1 11086:1 11245:1 11462:1 11541:2 11919:1 12259:1 12304:1 12374:1 12825:1 13589:1 13982:1 14435:1 15044:1 15046:5 15262:1 15328:1 15386:1 15463:1 15739:1 15849:1 16386:1 17138:1 17281:1 17301:2 17302:1 17334:1 17703:1 17730:1 18023:1 18764:1 18795:1 19091:1 19740:1 19890:1 20176:1 20387:1 20774:2 20818:1 21135:1 21919:1 22368:1 23352:1 23389:1 23771:1 23817:1 24177:1 26758:1 27055:1 27336:1 27512:1 27821:1 28879:1 29838:1 30024:1 30296:1 30457:1 30731:2 30850:1 31608:1 31896:1 32779:1 33065:1 33320:1 34714:1 34990:2 35239:1 35307:1 35452:1 35527:1 35921:1 35940:1 37050:1 37100:1 37415:1 38758:2 38855:1 38860:1 40108:1 40364:1 40442:1 40457:1 40946:1 41265:1 41981:1 42471:1 42981:1 43048:1 43977:1 44297:1 44963:1 45148:1 45239:1 45503:1 45715:1 45847:1 46039:1 46109:1 46183:1 46756:1 46950:1 47021:1 47437:1 47685:1 47747:1 48304:1 49143:1 49229:1 49243:1 49463:1 50493:1 50543:1 51267:1 52477:1 52904:1 53314:1 53388:1 54075:1 54543:1 55753:1 55765:2 55998:1 56134:1 56431:1 56715:1 56721:1 56855:3 57170:1 57214:1 #
-0.0011175493031564015 344:1 766:1 932:2 1644:1 1668:1 1969:1 2368:1 4009:1 4108:1 4179:2 4339:1 4827:1 4868:1 5107:1 5789:1 5991:1 6134:1 6382:5 6503:1 6975:1 7016:1 7206:1 7460:1 8035:1 8296:1 8342:1 8348:1 9466:1 9810:1 9840:1 9969:1 10502:1 10510:1 11353:1 11699:1 12316:1 12441:1 12904:1 13364:1 13749:2 13876:1 14459:1 14531:1 14751:1 14867:1 14936:1 15245:1 15484:1 15849:1 16257:1 16483:1 16925:1 17198:1 17217:1 17944:1 18145:1 18229:1 18579:1 18871:1 18926:1 19383:1 20395:1 20927:1 20928:1 21002:1 21094:1 21700:1 21807:1 21821:1 22032:1 22368:1 23091:1 23471:1 24008:1 24344:1 24463:1 24667:1 25096:1 25151:1 25629:1 26207:1 26694:1 27355:1 28063:1 28257:1 28602:1 28724:1 28879:1 29051:1 29258:2 29799:1 30795:1 30936:1 30969:1 30990:1 31404:1 33011:1 33648:1 34172:1 34341:1 34530:1 34550:1 34918:1 34936:1 34953:1 35084:1 35589:1 36146:1 37365:1 37829:1 37982:1 38219:1 38317:1 39027:1 39825:1 40233:1 40546:1 40691:1 40993:1 41284:1 41679:1 42107:3 42173:1 42533:1 42981:1 43152:1 43335:1 43710:1 43742:1 44156:1 44366:1 44671:1 46006:1 46289:1 46482:1 46678:1 47130:1 47249:1 47864:1 48422:1 48839:1 49549:1 49653:1 49810:1 49869:1 50123:1 50543:1 51271:1 51616:1 51906:1 51940:1 52317:1 53116:1 53745:1 53750:1 53804:1 53926:1 54275:1 54469:1 54696:1 54970:1 55214:1 55670:1 56126:1 56457:1 56660:1 56711:1 56721:2 56885:1 56914:1 57238:1 57404:1 57725:1 57884:1 58258:1 #
-0.0011175493031564015 144:1 1531:1 1780:1 1977:1 3188:1 3386:1 3497:1 3795:1 3941:1 4497:1 4855:1 5676:1 6586:1 6824:1 7631:3 8308:1 8958:1 9851:1 10225:1 11525:1 11541:1 12179:2 12349:1 12672:2 13214:4 14004:3 14771:1 14855:1 15982:1 16274:1 16351:1 17174:3 17281:1 17812:1 17983:1 18279:1 18506:1 18764:1 18795:1 19319:1 19880:1 20176:1 20329:1 20927:1 21286:1 21684:1 21749:1 22073:2 22519:1 23237:1 23438:1 23869:1 23938:1 24188:1 24294:1 24650:1 24667:1 24889:1 25194:2 26612:1 28879:2 30450:1 31815:1 31883:1 31996:1 32122:1 32610:1 32666:1 32768:1 33320:2 34200:1 34418:1 34700:1 34707:1 34990:1 35350:1 35626:1 35900:1 36083:1 36281:1 36502:1 37094:1 37317:1 39065:2 39453:1 39928:4 40883:1 41104:1 41181:1 41724:1 41735:1 42186:1 42243:1 43157:1 43346:1 43749:1 44683:1 44897:1 46863:1 47059:1 47328:1 48122:1 48191:1 48815:1 49592:1 50535:1 50543:1 51592:1 51652:1 52373:1 54189:1 54240:1 54309:1 54391:1 54863:1 55638:2 56499:1 56641:1 56721:2 57313:1 57600:1 58103:1 #
0.00044978939552510765 3:1 21:2 149:2 272:3 284:1 479:1 494:1 600:18 766:1 815:2 879:6 918:1 1911:1 1977:1 2021:1 3227:1 3364:1 3365:1 3581:1 3772:1 3799:4 3833:1 3856:1 4126:1 4262:1 4297:1 4456:1 4457:1 4736:1 4737:2 4753:1 4811:1 4897:1 5506:1 5583:1 5789:3 5937:1 6099:1 6130:1 6134:3 6295:1 6542:1 6707:1 6755:1 6955:1 7298:1 7322:1 7454:1 7600:2 7631:6 7647:1 8094:1 8114:1 8136:1 8448:2 8519:1 8543:2 8597:1 8636:1 8644:2 8919:1 8991:1 9043:1 9142:1 9222:1 9315:1 9325:1 9940:1 9965:1 10076:1 10085:3 10153:1 10161:2 10231:2 10238:1 10568:2 10774:1 10952:3 11135:3 11161:4 11304:1 11317:2 11443:1 11462:1 11731:1 11920:1 12026:1 12387:3 12432:1 12958:1 13083:1 13084:2 13140:1 13332:1 13438:2 13441:1 13876:2 13982:1 14046:1 14139:1 14273:1 14278:1 14442:3 14768:2 14839:1 14988:1 15126:1 15234:1 15417:1 15529:1 15533:1 15709:1 15849:1 15929:1 15933:1 16059:1 16083:1 16253:1 16257:1 16259:1 16359:1 16415:1 16569:1 16717:1 16823:1 16876:3 16949:1 17217:1 17281:3 17324:2 17752:1 18279:1 18328:1 18348:1 18446:1 18461:1 18764:1 18795:1 18844:1 18984:1 18987:1 18994:1 19037:1 19317:1 19354:1 19372:1 19890:1 20091:1 20176:4 20505:1 20818:1 20843:1 20927:1 21168:2 21304:2 21388:1 21453:1 21586:4 21616:1 21684:3 21807:1 21941:1 22079:1 22386:1 22477:2 22603:1 22844:1 22931:1 23143:1 23153:2 23735:1 24216:1 24312:1 24551:1 24667:6 24979:1 25146:1 25169:3 25211:1 25400:1 25447:1 25482:1 25489:1 25570:3 25605:1 25640:1 25891:1 25910:1 25916:1 26010:1 26118:1 26428:1 26503:1 26506:1 26592:1 26624:1 26964:1 27176:1 27209:1 27283:1 27493:1 27613:1 27801:1 27893:1 28003:2 28354:1 28530:3 28539:1 28875:1 28879:9 28890:1 28925:3 29038:1 29056:1 29079:1 29137:1 29257:1 29440:1 29610:1 29808:1 30017:3 30053:1 30068:1 30168:1 30401:1 30457:1 30595:1 30615:1 30734:1 30795:1 30812:1 30996:1 30999:1 31091:1 31147:1 31173:1 31346:1 31357:2 31443:1 31644:1 31920:2 31971:1 32122:1 32245:1 32255:1 32258:1 32422:1 32427:1 32487:1 32609:1 32674:1 33028:1 33128:1 33540:1 33741:2 33860:1 33934:1 33975:1 34043:1 34081:1 34200:1 34228:2 34247:1 34260:1 34278:1 34418:1 34846:1 34849:5 34953:1 34990:10 35189:1 35369:1 35565:1 35592:1 35940:1 36110:1 36156:1 36233:2 36417:1 36487:1 36543:2 36590:1 36597:1 36632:1 36921:2 37019:1 37025:1 37050:1 37079:1 37220:1 37226:1 37389:1 37428:1 37627:1 37682:1 37719:1 37916:1 37970:1 38095:1 38173:1 38174:1 38195:3 38463:1 38627:1 38641:2 38860:1 38910:5 39065:5 39122:1 39247:1 39504:3 39664:2 39952:1 40151:1 40515:1 40612:1 40994:1 41211:1 41244:1 41367:1 41396:1 41494:3 41507:1 41688:2 41699:4 41733:1 41942:1 41963:1 42243:1 42472:2 42477:1 42541:1 42699:1 42701:1 42778:1 42934:1 43015:3 43111:1 43265:1 43742:1 43759:1 43906:1 44047:1 44178:1 44221:1 44243:1 44313:1 44335:1 44362:1 44456:1 44776:1 44869:1 45123:1 45503:2 45514:1 45538:1 45606:1 45631:1 45862:1 45897:1 45944:2 46225:3 46267:1 46476:1 46544:1 46631:1 46646:1 46728:1 47221:2 47320:1 47521:1 47528:1 47727:2 47737:15 47767:1 47822:1 47915:2 48122:1 48157:1 48422:1 48445:1 48489:1 48543:1 48815:1 49146:2 49147:1 49243:1 49317:1 49758:1 49919:3 50111:1 50419:1 50502:1 50543:2 50859:1 50879:8 50989:1 51120:1 51313:1 51576:1 51676:1 51740:1 51994:1 52185:1 52408:2 52428:1 52459:2 52481:1 52554:1 52774:1 53329:2 53706:1 53745:1 53883:2 53969:1 54227:2 54291:1 54315:1 54449:2 54573:1 54642:1 54751:1 54864:1 54904:2 54970:1 55109:1 55188:1 55721:1 55766:2 55929:1 55938:1 56013:1 56016:1 56363:2 56445:2 56721:15 56731:1 56844:1 56914:1 57069:1 57185:1 57216:1 57363:1 57628:1 57952:2 58077:1 58203:1 58263:1 #
0.0011175493031564015 3:1 107:2 320:1 454:1 600:5 734:1 879:2 932:1 950:1 2112:1 2195:1 2294:1 2455:1 2990:1 3713:1 3725:1 3914:1 4300:2 4331:1 4533:1 4999:1 6034:1 6231:1 6378:1 6460:1 6472:1 6914:1 6964:1 7631:2 7941:1 8214:1 8307:1 8394:1 8648:1 8771:1 8846:1 8911:1 9043:1 9416:1 9581:1 10031:1 10142:1 10153:1 10161:1 10238:1 10511:1 10523:1 10778:1 10808:11 10965:1 11078:1 11161:3 11226:1 11289:2 11832:1 12178:1 12285:1 13876:8 13938:1 13952:1 14032:1 14497:2 14516:1 14587:2 14981:1 15088:1 15402:1 15627:1 15947:1 16315:1 16808:1 16876:1 17003:1 17408:1 17542:1 17703:1 17729:1 17931:1 18506:1 18684:1 18702:2 18795:1 18964:1 18994:1 19298:1 19352:1 19730:1 19928:1 20201:1 20927:1 21167:1 21220:1 21258:1 21919:2 22632:1 23102:1 23320:1 23494:1 23534:1 23938:2 24187:1 24511:1 24667:2 24717:1 25101:1 25303:1 25343:1 25352:1 25369:1 25370:1 25465:1 26053:1 26104:1 26139:1 26565:1 26585:1 26803:1 26921:10 27176:1 27253:1 27385:1 27560:2 27958:1 28257:2 28309:1 28569:1 29038:1 29226:1 29633:2 29679:1 29792:1 30163:1 30473:1 30658:1 30736:1 30815:1 30936:1 30999:2 31652:1 31803:1 31816:1 31889:1 32012:1 32188:1 32258:2 32276:1 32363:1 32893:1 32972:1 33218:1 33272:1 33278:1 33865:1 33986:1 34135:1 34376:1 34990:4 35239:1 35275:1 35462:1 35799:1 36046:1 36064:1 36490:1 36692:1 36798:1 37019:1 37022:1 37050:1 37186:1 37875:1 37941:1 38299:1 38641:1 38892:1 38906:1 38910:1 38929:1 38964:2 39065:2 39714:1 40290:1 40301:1 40508:3 41265:1 41304:1 41690:1 41739:1 41882:1 41888:1 41934:2 41981:2 42011:1 42107:1 42441:1 42477:1 42729:1 43148:1 43163:1 43316:1 43346:1 44066:1 44668:1 44688:1 44703:1 44756:2 44965:1 45128:1 45136:1 45262:1 45558:1 45814:1 45979:1 46049:1 46158:1 46183:1 46774:3 46903:2 47449:1 47521:1 48141:1 48159:1 48364:1 49243:3 49393:1 49407:1 49793:1 49919:1 49968:2 50057:1 50294:1 50543:4 50872:1 51071:1 51120:1 51225:1 51520:1 52168:1 52501:1 53651:1 53745:1 53923:1 54022:1 54113:7 54315:1 54449:1 54568:1 54666:1 54847:1 54861:1 55458:1 55624:1 55627:1 55646:1 55685:1 55752:1 55818:1 55993:1 55996:1 56102:1 56365:1 56392:1 56445:2 56483:1 56721:11 56947:1 57313:1 57469:1 57825:1 57952:1 58102:1 58203:1 #
0.0011175493031564015 349:1 359:2 600:3 867:1 879:4 1042:1 1076:1 1189:1 1201:1 1612:1 1668:2 1730:1 1977:1 2394:4 2463:1 2560:1 2598:1 3005:1 3123:1 3169:1 3260:1 3352:1 3364:2 3415:4 3493:1 3895:1 3964:1 4497:3 4636:1 4737:1 4914:1 5783:1 5937:1 6625:1 6747:1 7069:3 7079:1 7199:1 7563:1 7631:6 7813:1 7982:1 8074:1 8147:1 8342:1 8448:2 8593:1 8797:1 9023:1 9748:1 9751:1 10161:3 10790:1 10860:1 10899:1 11290:1 11376:2 11763:1 11949:1 12001:1 12304:1 12738:1 12891:1 13140:1 13438:1 13596:1 13822:1 14032:1 14114:1 14231:1 14236:1 14341:1 14425:1 14675:1 14768:1 14878:1 15041:1 15058:1 15116:1 15128:3 15197:1 15316:1 15660:1 15849:1 15972:1 16222:1 16368:1 16647:3 17474:1 17577:1 17983:1 18142:1 18398:1 18401:1 18580:1 18764:1 18795:1 19163:1 19200:3 19395:3 19584:1 19598:1 19902:1 20395:1 20927:3 20989:1 21231:1 21304:2 21454:2 21586:1 21807:1 22218:1 22368:3 22467:1 22477:3 22501:1 22736:1 22920:1 22931:2 23153:3 23609:1 23885:1 24224:1 24407:1 24667:3 24681:1 25343:1 25403:3 25465:2 25605:1 25779:1 25916:1 27283:1 27659:1 28003:1 28161:1 28221:1 28308:1 28454:2 28506:1 28526:1 28761:2 28879:3 29038:1 29419:2 29525:1 29610:2 29677:1 30287:1 30296:1 30315:1 30500:1 30632:1 30778:1 31346:1 32122:1 32297:1 32567:1 32610:1 32737:1 32950:1 33178:1 33320:2 33678:1 33902:1 33971:1 34532:1 34558:1 34990:1 35034:1 35178:1 35239:2 35469:1 35479:1 35511:1 36665:2 36689:1 36906:1 37127:1 37273:1 37539:1 37673:1 38517:1 38641:1 38910:5 39065:1 39122:1 39153:1 39658:1 39749:1 39757:1 39863:1 40158:1 40610:1 41180:3 41699:1 41991:1 42339:2 42535:1 42572:1 42897:1 43169:1 43226:1 43444:1 43825:1 44688:2 45044:1 45399:1 45503:1 45514:1 45979:2 46293:1 47043:1 47052:2 47659:1 47896:1 48243:2 48403:1 48422:1 48522:1 48810:1 48859:1 49015:1 49173:1 49243:5 49698:1 49919:1 50142:1 50338:1 50419:2 50543:1 50879:1 51069:2 51263:1 51309:1 51592:1 52216:1 52229:1 52248:1 52428:1 52459:3 52484:1 52774:2 52806:1 53249:1 53414:1 53645:1 54240:1 54309:1 54449:1 54480:1 54539:1 54599:1 54608:2 54904:1 55305:1 55685:2 55916:1 56102:2 56666:1 56721:13 57000:2 57306:1 57313:1 57361:1 57924:2 58102:1 58103:1 #
0.00058940557581078348 3:1 359:4 479:1 533:1 600:8 720:1 870:1 879:3 884:2 918:1 928:1 1215:1 1299:1 1464:1 1731:1 1773:1 1874:1 1902:1 1943:1 1977:1 1986:1 2312:1 2399:1 2521:1 3005:1 3090:1 3132:1 3137:1 3148:1 3215:1 3276:1 3364:1 3521:1 3581:1 3725:1 3743:1 3843:1 3990:1 4102:1 4132:2 4193:1 4273:1 4497:1 4691:1 4732:1 4937:1 4943:1 5479:1 5549:1 5618:1 5732:1 5777:1 5779:1 5873:1 5937:1 6542:1 6709:1 6898:1 7089:1 7170:1 7361:1 7458:1 7631:5 7941:2 8147:2 8266:1 8354:1 8578:1 8654:1 9043:1 9436:1 9501:1 9621:1 9700:2 9827:1 10085:1 10142:1 10161:3 10346:1 10743:1 10794:1 10925:1 10948:1 11161:3 11217:1 11336:3 11462:1 11541:3 12458:1 12823:1 12882:1 13335:1 13535:1 13682:1 13954:1 14258:3 14454:3 14531:1 14749:1 14755:1 14768:2 14795:1 14809:2 14913:1 15107:1 15181:1 15183:1 15272:1 15604:1 15627:1 15849:1 16703:1 16885:1 16956:1 17281:1 17324:1 17433:1 17703:2 17727:1 17752:1 17795:1 17924:1 17983:1 18279:1 18328:1 18460:1 18984:1 19072:1 19623:1 19637:1 19730:1 19870:1 20058:1 20186:1 20201:1 20289:1 20350:1 20426:1 20531:1 20927:3 21233:1 21261:1 21500:1 21700:7 21807:1 21845:1 21987:1 22378:1 22571:2 22577:1 23015:1 23218:1 23286:1 23653:1 23764:1 23794:1 24308:1 24312:1 24334:4 24352:2 24598:1 24667:4 24668:1 25167:1 25238:1 25400:2 25465:1 25858:1 26734:3 26778:1 27077:1 27132:1 27283:1 27394:1 27676:1 28003:1 28318:1 28393:2 28409:1 28591:3 28852:1 28879:2 29149:1 29563:2 29645:1 29695:1 30294:1 30315:1 30473:2 30576:2 30597:1 30615:1 30774:1 30949:1 30996:1 31028:1 31394:1 31496:1 31591:1 31769:1 31966:1 31971:2 31996:2 32172:1 32315:1 32487:1 32610:1 33028:1 33320:1 33540:2 33975:1 34200:2 34685:1 34824:1 34849:1 34953:4 34990:5 35469:1 35479:1 35692:1 35759:1 35871:3 36197:1 36281:1 36301:2 36354:1 36664:1 37548:1 37558:1 37786:1 38028:1 38063:1 38758:1 38785:1 38910:9 39102:1 39927:1 40222:1 40329:1 40571:1 40757:1 40759:1 40963:1 41124:1 41699:1 41735:1 42370:1 42752:1 43284:1 43652:1 43759:1 43947:1 44182:1 44788:1 45119:1 45156:1 45352:1 45503:2 45504:1 45546:1 45750:2 46049:1 46120:1 46653:1 47052:1 47108:1 47221:1 47256:1 47400:1 47482:1 47528:1 47646:1 47685:1 47828:1 47978:1 48123:1 48422:1 48574:1 48803:1 48991:1 49024:2 49209:1 49243:2 49578:1 49653:1 49680:1 49973:1 50106:1 50175:1 50304:1 50543:6 50584:1 50599:1 50950:1 51052:1 51240:1 51244:1 51313:1 51348:1 51447:1 51564:1 51652:2 51750:1 51998:1 52013:1 52022:1 52459:1 52774:4 52806:1 52889:1 52932:1 53541:1 53562:1 53698:1 53969:1 54037:1 54058:1 54185:1 54309:1 54317:1 54576:1 54642:1 54863:1 54904:1 55189:1 55382:1 55586:1 55685:1 55818:4 55819:1 56053:1 56134:1 56272:15 56445:1 56721:9 57179:1 57306:1 57313:1 57359:1 57407:1 57600:1 58103:1 #
-0.0011175493031564015 149:1 359:1 600:2 815:1 879:2 1613:2 1731:1 2025:1 2725:1 3675:1 4208:1 4691:1 5036:1 5789:1 5937:1 6034:1 6170:1 6503:2 6542:1 7014:1 7631:1 7976:2 8214:1 8902:1 9420:1 9436:1 9466:1 10142:1 10262:1 10665:1 10989:1 11289:1 11541:1 11623:1 11920:1 12471:1 13570:1 13736:1 13876:1 14344:1 14363:1 14464:1 14596:1 15473:2 15583:6 15702:1 15849:1 16214:1 16253:1 16858:1 17099:1 17198:1 17281:2 18795:1 18807:1 19542:1 20395:1 20843:1 21318:1 21807:1 21909:1 22333:1 23885:1 23906:1 24646:1 24667:1 24681:1 27618:1 28879:3 29226:1 29419:2 29975:1 30253:1 30731:1 30795:1 31492:1 31896:1 32833:1 32904:1 33540:1 33798:1 33865:2 34200:1 34418:1 34429:1 34621:3 34849:1 34990:2 35175:1 35189:1 35239:1 36155:1 36543:1 37019:1 37029:1 37539:1 38195:1 38221:1 38805:1 38910:3 39091:1 39419:1 40029:1 40412:1 41512:1 41697:1 41699:1 42060:1 42981:1 42992:1 43742:1 44688:2 44788:1 44793:1 44955:1 45086:1 45503:1 46187:1 46886:1 46903:1 46908:1 47229:1 47621:1 47727:2 47862:1 48201:1 48746:1 49071:1 49828:1 50543:4 50577:1 50936:1 51260:1 51483:1 52647:1 52774:1 53060:1 53484:1 54219:1 54309:1 54773:1 54932:1 55109:1 55261:1 55351:1 55758:1 56483:1 56702:1 56721:4 56872:1 58103:1 #
-0.00059853808812782537 221:2 284:2 359:2 469:2 473:2 551:2 563:2 600:6 847:2 879:14 912:2 977:2 1312:2 1911:4 2021:6 2396:2 2559:2 2867:2 2873:2 2876:2 2994:4 3005:2 3207:2 3364:2 3375:2 3601:2 3941:2 4300:2 4497:2 4691:4 5528:2 5777:2 5937:2 6078:2 6134:2 6747:2 6960:2 7444:2 7454:2 7631:2 7632:2 7780:2 7819:2 8257:2 8835:2 8966:2 9433:2 9464:2 9674:2 10153:2 10223:2 10750:2 10860:4 10998:2 11525:2 11541:6 12122:2 12260:2 12486:2 12517:2 12752:2 12767:2 12787:2 12882:2 12891:2 13002:2 13306:2 13611:2 13952:4 13961:2 14004:2 14246:2 14258:6 14531:2 14697:8 14747:2 15417:4 15453:2 15750:4 15808:6 15917:4 15988:2 16325:2 16622:2 16693:2 16716:2 16808:2 17033:2 17135:2 17198:6 17281:4 17324:4 17468:2 17474:2 17812:2 17924:2 17983:4 18212:12 18446:2 18460:2 18478:4 18633:2 18764:2 18795:4 19052:2 19109:2 19154:2 19322:2 19441:2 19651:2 19730:2 20058:2 20250:4 20395:2 20639:2 20927:6 21064:2 21304:2 21521:2 21588:2 21639:2 21663:4 21684:4 21700:2 22281:2 22415:2 22462:4 22477:2 22722:2 22891:2 22930:2 22989:2 23015:2 23066:2 23089:2 23419:2 23596:2 23885:4 24081:2 24312:2 24556:2 24667:20 25031:2 25361:2 25369:2 25698:2 25761:2 25763:2 25779:2 26186:2 26428:2 26441:2 26590:2 26745:2 27010:2 27060:2 27142:2 27370:20 27631:8 27828:12 27958:6 28003:2 28127:4 28354:6 28550:2 28601:2 28879:6 28931:4 29038:10 29078:2 29149:2 29155:2 29226:2 29419:2 29637:2 29738:2 29845:2 29866:2 30029:2 30163:2 30169:2 30483:2 30544:2 30653:2 30737:2 31439:2 31769:2 31857:2 31996:2 32297:6 32366:2 32610:2 33320:2 33574:4 33586:4 33825:4 33975:2 34200:6 34340:4 34378:2 34418:2 34953:2 34990:10 35469:2 35546:2 35765:2 35871:28 35900:2 35940:2 35976:2 36039:2 36414:2 36543:2 36622:2 36759:4 36805:2 37024:2 37045:2 37051:2 37199:2 37260:2 37389:2 37458:2 37977:2 38027:2 38195:2 38452:2 38522:4 38641:2 38813:2 38910:2 39065:8 39077:2 39102:2 39116:2 39278:2 39604:2 40294:2 41173:2 41227:2 41285:2 41760:2 41858:2 41913:2 41974:4 42005:2 43129:1 43360:2 43381:2 43405:2 43437:2 43563:4 43575:2 43591:2 43813:2 43974:2 44178:2 44182:2 44688:2 44989:2 45298:2 45586:2 45594:2 45641:2 45750:2 46034:2 46109:2 46359:2 46497:2 46618:2 46903:2 46954:2 47120:2 47475:4 47521:2 47685:2 47727:2 47867:4 47990:2 48036:2 48305:4 48445:2 48686:2 48991:2 49073:2 49085:2 49108:2 49145:2 49147:2 49229:2 49243:8 49357:2 49799:2 49919:2 49976:2 50072:2 50106:2 50281:4 50419:2 50543:16 50635:2 50833:4 50936:2 51205:2 51225:2 51280:2 51350:2 51367:2 51652:2 51698:2 52010:2 52053:2 52259:2 52276:2 52434:2 52456:2 52774:2 53031:2 53148:2 53295:2 53582:2 53602:4 53778:4 53962:2 54227:2 54240:2 54309:2 54457:6 55109:2 55458:4 55472:2 55487:2 55636:2 55685:4 55818:2 55860:2 56290:4 56403:2 56422:2 56721:46 57197:2 57705:2 57825:4 57952:2 57987:2 58077:2 58201:2 58220:2 #
0.0011175493031564015 600:5 958:1 1490:1 1528:1 1668:1 1789:1 2472:1 2559:1 3462:1 3581:1 3643:1 3991:1 4530:1 5377:1 5583:2 5937:1 6105:1 7631:1 8099:2 8145:1 8257:1 8342:2 8480:1 8654:1 9063:1 9435:1 9933:1 10301:1 10331:1 10633:1 10985:1 11077:1 11108:1 11299:1 11462:2 12003:1 12774:1 12967:1 12981:1 13084:2 13332:1 13384:1 14151:1 14179:2 14341:1 14426:1 15107:1 15286:1 15516:2 15773:1 15849:1 16970:1 17198:1 17281:1 17324:1 18219:1 18461:1 18764:1 18795:1 18876:2 19311:1 19890:1 20433:1 21318:1 21684:1 22115:1 22432:3 22449:1 22462:1 22477:1 22742:1 22931:1 22988:1 23110:1 23153:1 23609:1 23644:2 24129:1 24608:1 24667:2 24801:1 27283:2 28931:1 29038:1 29419:1 29961:2 30131:1 30296:2 31996:1 32235:1 32487:1 33106:1 33580:1 33636:1 34418:2 34597:1 34827:1 34952:1 35084:1 35147:1 35353:1 35357:1 35511:1 36506:1 37240:1 37972:1 37998:1 38540:1 38808:1 39065:1 39118:1 39122:1 39194:1 39468:1 39664:1 40290:1 41284:1 41649:1 42055:1 42682:1 43473:1 44071:1 44688:3 44853:1 45176:1 45293:1 45631:1 45731:1 45897:1 46196:1 46544:1 46942:1 47528:1 47704:2 49173:1 49187:1 49243:2 50543:1 50652:2 50724:1 51240:1 51313:1 51741:2 52459:1 54449:1 54573:1 54723:1 54904:2 55498:1 55818:1 55927:1 56721:5 57025:1 57122:1 57278:1 57325:1 57938:1 58030:1 #
-0.00050105112855967492 370:1 567:1 600:8 734:1 805:5 884:1 1312:1 1445:1 1731:1 2334:1 2472:1 2814:1 3310:1 3364:1 3497:1 3843:1 4006:1 4044:1 4677:1 4683:1 4727:1 5260:1 5391:1 5434:1 5696:1 5789:1 5848:1 5937:1 6008:1 6460:1 6740:4 7012:1 7179:1 7259:1 7427:1 7631:2 7860:1 7979:1 7982:1 8214:1 8331:2 8376:1 8390:2 8850:1 9049:1 9927:1 10161:1 10444:1 10799:3 10860:1 10917:1 11013:1 11541:2 11890:1 12179:2 12906:1 13036:2 13332:1 13389:1 13952:1 13982:1 14246:1 14278:1 14401:1 14566:1 14809:1 15046:7 15328:1 15329:1 15564:1 15581:1 15623:1 15627:1 15688:1 15798:1 15988:1 16351:1 17003:2 17273:1 17537:1 17590:1 17758:1 17774:1 18328:1 18480:1 18764:1 18795:1 18876:1 18926:1 19500:1 19625:1 20178:1 21318:1 21684:1 21700:2 21790:1 21807:1 21933:1 22892:1 23153:2 23259:1 23389:1 23498:1 24129:1 24213:1 24441:1 24641:1 24667:3 25031:1 25112:1 25172:1 25491:1 25709:1 25861:1 26362:1 26428:1 26745:1 26847:1 26909:1 27176:1 28634:1 28761:2 28879:2 29070:1 29201:1 29294:1 29518:1 29610:2 29637:1 30235:1 30253:1 30795:1 30931:1 30970:1 31125:1 31194:1 31420:1 31923:1 32122:2 32148:1 32245:1 32598:1 32653:1 32753:1 32779:1 32833:1 33285:2 33320:1 33865:1 33975:1 34045:1 34065:1 34108:2 34200:1 34207:2 34228:1 34453:1 34630:1 34990:4 35326:1 35441:1 35626:1 35738:1 35794:1 35842:1 35875:1 35896:1 35949:1 36191:1 36447:1 36566:1 36613:2 36733:1 36788:1 36893:1 37202:1 37232:4 37397:1 37495:1 37710:1 37863:1 37888:1 37982:2 38517:1 38758:1 38910:3 39044:1 39065:1 39219:1 39308:1 39398:1 39414:1 40092:1 40138:1 40155:1 40719:1 40729:1 41382:1 41545:1 41589:1 41697:1 41735:1 41773:1 41858:1 41913:1 42049:1 42133:1 42360:1 42403:1 42721:1 42981:1 43072:1 43327:1 43590:1 43643:1 43680:1 43782:1 43920:1 44283:1 44408:1 44688:1 44975:1 45352:1 45473:1 45503:1 45845:1 45890:1 45897:1 45979:1 46597:1 46891:1 47473:1 47828:1 47850:1 48036:1 48104:1 48143:1 49187:1 49197:1 49243:1 49469:1 49480:1 49664:1 50429:1 50543:5 50693:1 50795:1 50798:2 50818:1 50887:1 51267:1 51576:1 51626:1 51676:1 51862:1 52190:1 52259:2 52774:1 53482:1 53778:1 54428:1 54587:1 54594:1 54824:1 55109:1 55181:1 55685:2 55798:1 55814:1 55832:1 56721:11 56732:1 57313:1 57559:1 57697:1 57880:1 58057:1 #
0.0011175493031564015 132:1 600:3 879:2 1993:1 2098:1 2582:1 4524:1 5794:1 5995:1 6047:1 7913:1 7941:1 8493:1 8734:1 8770:1 9965:1 10036:1 10092:1 10161:1 10695:1 10808:1 10917:1 11135:1 12090:1 12865:1 13425:1 14037:1 14914:1 15123:1 15343:1 15516:1 17812:1 18506:1 18677:1 18984:1 19737:1 20838:1 20843:1 20927:2 21009:1 21807:1 22501:1 22703:1 22774:1 24667:1 25400:1 25579:1 25792:1 25944:1 26447:1 26585:1 27958:1 29185:1 30297:1 30871:1 31959:2 32260:1 33821:1 34990:1 35444:2 35805:1 36218:1 36598:1 36684:1 37579:1 37681:1 38479:1 38797:1 38971:1 40036:1 40350:1 40609:1 40718:1 41181:1 41253:1 42014:1 42107:1 42796:1 42797:1 42909:1 43061:1 44688:1 44853:1 45076:1 45547:1 45983:1 48422:1 48477:1 49073:1 50536:1 50818:1 51310:1 52191:1 54863:1 55617:1 55949:1 56721:2 57403:1 58103:1 58119:1 #
0.0011175493031564015 1279:1 2465:1 2889:1 3770:1 4022:1 4400:1 5391:1 5825:3 6500:1 7819:1 8477:1 8531:1 8651:1 8835:1 9946:1 10161:1 10401:1 14580:1 15849:1 17174:2 17776:1 20223:1 20387:1 20676:1 21525:1 21919:1 23486:1 24667:2 24990:1 27142:1 29743:1 30990:2 31357:1 32691:2 33394:1 33398:2 37892:1 37982:1 38195:1 38910:1 39122:1 39512:1 39738:2 40481:1 41367:1 41623:1 44539:1 46756:1 46774:1 47256:1 47599:1 47699:1 49652:1 49973:1 50218:1 50562:1 53674:1 54410:1 54449:1 55307:1 55685:1 55766:1 56039:1 56721:2 #
-0.0011175493031564015 349:1 600:2 696:1 1702:1 3352:1 3581:1 3800:1 3843:1 4022:1 7682:1 10085:1 10225:1 10238:1 11462:1 11606:1 11986:1 14755:1 15818:1 16427:1 18360:1 18764:1 18795:1 19500:1 19987:1 20067:1 21935:1 22114:1 23571:1 25372:1 28003:1 28601:1 28879:1 29149:1 29419:1 30483:1 31361:1 33320:1 33865:1 37273:1 37374:1 38910:1 40404:1 41858:1 43742:1 44861:1 44955:1 45238:2 45503:1 46774:3 47599:1 48049:1 48405:1 48832:1 49549:1 49653:1 49675:1 49753:1 50543:1 50780:1 50862:3 51126:3 51867:1 54642:1 55766:1 #
-0.0011175493031564015 199:1 208:1 331:1 359:1 600:5 766:5 840:1 879:1 932:1 1256:1 1542:1 1578:1 1773:1 1921:1 1977:1 2018:1 2087:1 2256:1 2664:1 2712:1 3005:1 3352:1 3701:1 3809:4 3895:1 4224:1 4497:1 4631:1 4737:1 4802:1 4925:1 5124:1 5604:1 5906:1 5975:1 6134:1 6292:1 6898:1 7019:1 7188:1 7259:1 7600:1 7631:3 7704:1 8214:2 8342:1 8372:1 8448:1 8640:1 8646:2 9399:2 9893:1 10094:1 10161:4 10917:1 11077:1 11514:1 11541:1 12631:1 12710:1 12834:1 12958:1 13084:1 13403:1 13438:2 13499:1 13631:1 13857:1 13982:1 14223:1 14237:7 14596:2 14616:1 14728:1 14755:1 14768:1 15516:1 15849:3 16427:1 17244:1 17281:4 17290:1 17324:1 17812:1 18167:1 18296:1 18398:1 18506:4 18614:1 18678:1 18764:3 18795:2 19037:1 19109:1 19384:3 19395:2 19626:1 19651:1 19692:1 20018:1 20176:1 20186:1 20443:1 20679:1 20825:1 20927:2 21451:1 21579:1 21684:1 22203:1 22368:1 22432:1 22449:1 22603:1 22931:1 23153:1 23644:1 23938:1 24593:1 24667:1 24681:1 24889:1 25057:1 25318:3 25343:1 25489:1 25605:1 25944:1 26517:2 26585:1 26592:1 27119:1 27469:1 27828:1 27915:1 27958:1 28254:1 28457:1 28601:3 28761:1 28879:1 29245:1 29280:1 29363:1 29451:1 29610:1 29677:21 30417:1 30574:1 30716:1 30812:1 30980:1 30999:1 31305:1 32122:2 32487:1 32499:1 32508:1 32533:2 33115:1 33320:3 33865:2 34133:1 34310:1 34311:1 34312:1 34418:1 34481:1 34897:1 34990:4 35013:1 35469:1 35617:1 35645:2 36098:1 36104:1 36211:1 36745:1 37389:3 37982:2 38209:1 38424:1 38432:1 38517:1 38690:1 38855:1 38860:1 38910:3 39065:4 39219:1 39283:1 39566:3 39695:1 40072:1 40088:1 40660:1 40729:1 40943:1 41104:1 41161:1 41175:1 41480:1 41699:1 41787:1 43366:1 43444:1 43606:4 43626:1 43638:1 43742:1 43759:1 44006:1 44044:2 44197:1 44243:1 44688:1 44776:1 44788:1 44861:1 44862:1 44897:1 44965:1 45028:1 45273:1 45503:2 45567:1 45833:1 46187:1 46544:1 47221:1 47528:2 47727:1 48002:1 48163:1 48310:1 48991:1 49243:1 49443:3 49448:1 50106:1 50419:1 50543:5 50641:1 50936:1 51124:1 51263:1 51283:1 51641:1 51829:2 51850:1 52128:1 52459:1 52601:1 52695:1 52706:1 52882:4 53087:1 53655:1 53698:1 53749:1 53782:1 54128:1 54449:2 54643:1 54904:1 55685:1 55818:1 56422:1 56467:1 56499:1 56721:8 57414:1 57483:1 57686:1 57917:1 58103:1 #
-0.0011175493031564015 600:1 879:1 14538:1 41649:1 43742:1 45979:1 49866:1 52379:1 56721:1 #
0.00097619153565183642 3:1 78:1 156:1 284:3 359:7 386:1 600:1 670:4 766:1 879:21 1046:1 1092:3 1272:2 1379:1 1431:1 1724:1 1911:2 1977:2 2021:1 2321:1 2876:1 2912:1 2920:1 2953:1 2994:2 3005:3 3352:5 3364:2 3543:1 3601:3 3664:1 3800:1 3837:1 3848:1 3942:1 4004:1 4017:1 4048:1 4057:1 4135:1 4300:2 4407:1 4691:2 5126:1 5226:1 5445:1 5483:2 5583:1 5794:1 5804:1 6105:1 6339:2 6460:1 6522:1 6602:1 6747:1 6795:1 7179:2 7437:1 7499:1 7631:1 7819:2 7852:1 7941:3 7951:1 8091:1 8290:1 8354:1 8538:1 8835:1 8996:1 9028:1 9958:1 10142:1 10161:4 10238:5 11120:1 11275:1 11462:1 11525:1 11541:2 12026:1 12122:1 12882:1 13084:2 13115:1 13177:2 13438:1 13442:1 13938:2 13952:1 14004:1 14175:1 14231:1 14258:2 14273:1 14596:1 14684:1 14690:1 14697:2 14768:2 15108:1 15555:1 15558:1 15808:7 15809:1 15847:1 15988:1 16257:2 16392:1 16461:1 16488:1 16676:1 16693:1 16795:1 16823:2 17175:1 17198:2 17324:4 17516:3 17983:2 18249:1 18360:1 18370:2 18398:3 18446:1 18460:1 18506:3 18764:2 18795:2 18984:1 19322:1 19547:1 19598:1 20099:1 20250:2 20282:1 20443:3 20927:5 21071:1 21247:1 21304:1 21318:1 21454:3 21506:1 21543:2 21588:1 21657:1 21684:3 21700:2 21880:1 22135:1 22415:9 22423:1 22477:3 22571:1 22603:1 23102:2 23153:7 23365:1 23823:2 23835:1 23852:1 23869:1 23965:1 24061:1 24269:1 24375:1 24388:2 24667:23 24711:2 25180:1 25182:1 25297:1 25400:1 25543:1 25696:1 25763:1 25824:1 26116:1 26254:1 26378:1 26447:1 26517:1 26565:1 26647:1 26882:1 26909:1 27176:1 27283:1 27435:1 27533:1 27631:6 27804:1 27828:1 27958:1 28086:1 28254:1 28302:1 28354:1 28376:2 28396:1 28556:1 28601:1 28879:1 29038:2 29419:3 29465:1 29542:1 29588:1 29849:1 29866:2 29977:1 30163:1 30315:1 30445:1 30450:1 30483:1 30692:1 30763:1 30795:1 30819:1 31605:1 31759:1 31769:1 31854:1 31996:1 32208:1 32610:2 32666:1 32785:2 32805:1 33278:1 33395:1 33775:1 33865:2 33894:1 33975:1 34200:3 34316:1 34340:2 34453:1 34557:1 34685:1 34792:1 34824:1 34849:3 34990:6 35239:2 35511:1 35581:1 35809:1 35871:5 36077:1 36098:1 36467:1 36502:1 36602:1 36735:1 36867:1 37072:1 37389:6 37628:1 37697:1 37934:1 38131:1 38627:1 38748:1 38758:1 38910:1 39065:6 39077:4 39219:2 39278:1 39504:1 39535:1 39696:1 39857:1 39883:1 40294:1 40327:4 40512:1 40515:1 40675:1 40799:1 40809:1 41265:1 41559:1 41699:1 41718:1 41729:1 41858:1 42404:1 42419:1 42520:1 43316:2 43742:1 43759:1 44182:1 44389:1 44416:1 44426:2 44688:4 44897:1 45028:1 45213:1 45265:1 45399:1 45401:1 45407:2 45503:3 45750:1 45897:1 45979:2 46049:1 46354:1 46544:1 46595:1 46722:1 46903:2 47221:1 47372:2 47599:1 47636:1 47653:1 47714:1 47849:3 47850:2 47867:1 48039:1 48304:1 48490:1 48658:1 48886:1 48985:1 49071:1 49187:1 49243:1 49653:1 50111:1 50419:4 50543:6 50577:1 50591:1 50693:1 50747:1 51169:1 51246:1 51263:1 51267:1 51313:1 51315:1 51343:1 51508:1 51549:1 51975:1 52010:2 52094:1 52155:1 52350:1 52373:1 52428:1 52459:1 52671:1 52774:3 52806:3 53073:2 53309:1 53322:1 53369:1 53482:1 53655:1 53745:1 53924:1 53943:1 54023:1 54162:1 54222:1 54227:1 54296:1 54309:1 54344:2 54425:1 54457:1 54546:1 54588:1 54642:1 54751:1 54932:1 55109:1 55676:1 55685:2 55818:1 56240:2 56459:1 56558:1 56721:34 57096:1 57140:1 57176:1 57197:1 57214:2 57285:1 57313:2 57501:1 57600:3 57706:1 57825:1 58103:1 58201:4 #
0.00090788956959891268 3:1 284:1 359:3 600:2 771:2 879:5 918:2 1627:1 1777:1 1789:2 1877:1 1977:1 2273:1 2356:1 2537:1 2538:2 3240:1 3364:1 3524:1 3777:1 3964:1 3990:1 4331:1 4502:1 4636:2 5124:1 5789:1 5937:1 6186:3 6747:2 6990:2 7631:6 8128:1 8214:1 8474:1 8480:1 8699:1 8768:1 9293:1 9363:1 9501:1 9966:1 10015:1 10444:3 10507:2 10666:1 10719:1 10747:1 10825:4 11299:1 11353:1 11362:2 11623:1 11870:1 12239:1 12432:1 12498:1 12836:1 13084:3 13560:1 13982:1 14227:1 14422:2 14462:3 14464:1 14729:1 14803:1 15197:1 15573:2 15721:2 15891:1 17281:2 18002:2 18147:1 18219:1 18328:1 18398:1 18841:1 18902:1 18920:1 19109:1 19247:1 19328:1 19354:3 19542:2 19987:1 20698:2 21318:1 21454:6 21684:1 21807:1 21815:1 22140:1 22161:1 22218:1 22501:2 22603:1 23153:1 23219:1 23259:1 23869:1 23906:1 24308:1 24417:1 24506:1 24565:1 24646:2 24667:7 24681:1 25370:2 25400:1 26422:1 26428:2 26610:1 27188:1 27190:1 27468:1 27734:1 27828:1 28167:1 28601:1 28665:1 28879:8 29038:2 29226:1 29419:1 29921:1 30315:1 30450:1 30697:1 30769:1 30795:1 31404:2 31966:1 32034:1 32122:1 32258:2 32558:1 32570:1 32643:1 33278:1 33401:1 33503:1 33865:2 33975:2 33986:1 34200:2 34216:1 34340:1 34953:2 34990:5 35027:1 35239:2 35511:1 35813:1 35940:1 36061:1 36087:1 36218:1 36822:2 36921:1 36952:1 37273:2 37389:1 38062:1 38758:2 38910:5 39158:1 39201:1 39367:1 39459:1 40799:2 41255:2 41265:1 43006:1 43759:1 44688:1 44955:1 45028:3 45503:1 45567:1 45578:1 45814:1 45979:4 46561:1 46577:1 47075:3 47727:1 47850:1 48243:2 48991:1 49243:1 49653:1 49877:1 50419:1 50543:6 50641:2 51213:1 52010:1 52142:1 52459:1 52774:3 53033:1 53405:2 53566:1 53655:1 53675:1 53838:1 54904:1 55430:1 55472:1 55818:1 56102:1 56721:15 56947:1 57313:3 57337:1 57783:4 57952:1 58103:2 #
-0.0011175493031564015 349:1 359:1 600:1 766:1 879:1 2338:1 2844:1 3005:1 3364:2 3648:1 3657:1 3800:1 4249:1 4862:4 5236:1 5937:1 6047:1 6186:1 6602:1 6633:1 7631:1 7819:1 7982:1 8099:1 8318:1 8965:1 8966:1 10470:1 11541:2 11814:1 11919:1 12834:1 14118:4 14596:1 15341:1 15627:1 15752:1 16253:1 16392:1 16482:1 16747:1 16749:1 16878:1 17281:2 18398:1 18710:1 18795:2 19032:1 19542:1 19890:1 20639:2 20673:2 21513:1 21684:1 21919:3 22285:1 22501:1 22603:2 22844:1 23102:1 23365:1 23721:1 24593:1 24667:2 26271:1 26383:1 26428:1 27142:1 28454:1 28569:1 28601:2 28879:1 29610:1 29912:1 29920:1 29961:1 30017:1 30336:1 30394:1 30731:1 31769:1 34228:1 34229:1 34340:1 34453:2 34638:1 34990:2 35239:1 35309:1 35519:3 35940:1 36447:1 36452:1 36992:1 37389:2 37954:1 38063:1 38221:1 38756:2 38910:3 39504:1 39949:1 40361:2 40755:1 42281:1 42797:2 42839:1 42898:1 43742:1 43931:1 44236:1 44312:1 44378:1 44688:3 44788:1 45503:1 45750:1 45824:1 46174:1 47094:1 47757:2 48304:1 48414:1 49143:1 49229:1 49243:2 49653:1 49749:1 50106:1 50543:1 51205:1 51393:1 51398:1 51490:1 51641:1 52010:1 52155:1 52272:1 52728:1 53151:1 53312:1 53492:1 53856:2 54321:1 54449:3 54584:2 54612:2 55581:1 55685:2 56134:1 56721:8 57072:1 57855:1 #
-0.0011175493031564015 359:1 670:1 766:1 879:1 1272:1 1789:1 3230:1 3364:1 4224:1 4331:1 4379:1 4691:1 5789:1 6747:1 6997:1 7188:1 7474:1 7631:2 8460:1 8897:1 10498:1 11541:3 11629:2 11915:1 13442:1 13534:1 14283:1 14454:1 14795:1 15275:1 16188:3 16196:1 16718:1 16963:1 17281:2 17290:1 17324:1 18212:1 18795:1 18984:2 19046:1 19579:3 20843:1 21220:3 21300:1 21700:1 21883:1 22368:1 22844:1 24017:1 24211:1 24506:1 24667:2 25023:1 25570:1 25696:1 26156:1 26383:1 28539:1 28879:2 29294:1 29544:1 30375:1 30450:1 30687:1 31118:1 32488:1 32610:1 33599:2 33923:1 34385:1 34814:4 35013:1 35360:2 35369:2 35511:1 36759:1 36906:1 37051:1 38522:1 38758:1 38910:1 39065:2 39759:1 40301:2 40472:1 41161:1 41175:1 41255:1 41296:1 41934:1 43759:1 44547:1 44695:1 45044:1 45128:1 46049:1 46544:1 46611:1 47599:1 47685:1 47957:1 48243:2 48428:1 49951:1 50202:1 50208:1 50543:1 50579:1 51225:2 51263:1 51641:1 51676:1 52190:1 53782:1 53800:1 56402:1 56721:6 57014:1 57306:1 57313:1 57952:2 58063:1 #
0.0011175493031564015 144:1 506:3 600:9 641:1 650:1 732:1 842:1 867:1 879:11 884:1 908:1 948:1 1086:1 1088:1 1202:1 1272:2 1379:1 1412:2 1490:1 1548:1 1636:1 1637:1 1650:1 1668:1 1741:1 1977:3 2287:1 2399:1 2580:1 2664:1 2714:1 2725:1 2751:1 2811:1 2816:1 2990:2 3005:3 3066:1 3132:1 3269:1 3352:4 3364:2 3521:1 3559:1 3581:1 4193:1 4300:1 4331:1 4478:1 4480:1 4618:1 4631:1 4677:1 4859:3 4943:1 4953:1 5158:1 5287:1 5440:1 5579:1 5725:1 5763:1 5789:1 5794:1 5937:3 5939:1 6059:1 6291:1 6399:2 6477:1 7014:1 7110:1 7179:1 7218:1 7242:1 7474:1 7513:1 7631:9 7745:1 7872:1 7882:1 7914:1 7989:2 8136:1 8147:1 8214:1 8341:4 8672:1 9315:1 9338:1 9435:1 9473:1 9484:1 9639:1 9665:1 9700:1 9882:1 9913:1 9925:2 10042:2 10116:1 10121:1 10161:2 10225:2 10332:1 10825:3 11003:1 11042:5 11169:1 11217:2 11317:2 11510:1 11541:2 11824:1 11869:1 11896:1 11947:1 12115:1 12278:1 12327:1 12432:1 12551:3 12815:1 12817:3 13046:1 13207:1 13254:1 13438:1 13535:1 13571:1 13661:1 13921:1 14196:2 14198:1 14392:1 14436:1 14576:1 14730:1 14809:1 14893:1 15128:1 15149:1 15233:1 15417:2 15765:1 15947:1 15981:1 16013:1 16035:1 16271:1 16392:1 16427:1 16819:1 16910:2 16949:2 16963:1 17205:3 17324:1 17425:1 17441:1 17516:2 17557:1 17656:1 17727:1 17752:1 17818:1 17977:1 18103:1 18183:1 18279:1 18328:1 18398:2 18506:1 18571:1 18743:1 18764:4 18781:1 18984:1 19086:2 19481:1 19549:2 19840:1 20058:1 20080:1 20160:1 20176:3 20242:1 20448:1 20449:1 20692:1 20694:1 20927:3 21019:1 21065:1 21151:1 21219:1 21304:2 21326:1 21468:1 21541:1 21557:6 21586:2 21684:3 21815:1 22086:1 22186:1 22368:1 22477:2 22603:1 22626:1 22686:1 22844:1 22885:1 22931:2 23153:2 23412:1 23498:1 23906:1 23930:1 23940:1 24048:1 24203:1 24333:3 24388:2 24443:1 24528:1 24608:1 24624:1 24653:1 24889:1 25171:1 25225:1 25281:1 25297:1 25370:1 25709:1 25763:1 26191:1 26231:1 26376:1 26383:1 26428:3 26451:2 26469:1 26512:1 26517:1 26640:1 26809:1 27270:1 27303:1 27605:3 27870:1 27958:3 28003:1 28024:1 28252:2 28360:1 28432:1 28437:1 28583:1 28731:1 28879:8 29059:2 29149:1 29251:1 29349:3 29383:1 29419:1 29434:2 29525:1 29633:1 29798:1 29860:1 29866:1 29920:1 29953:1 30029:1 30041:1 30053:2 30117:1 30131:1 30185:1 30270:1 30296:2 30306:1 30442:1 30589:1 30718:1 30769:1 30795:1 30970:1 31038:1 31151:1 31637:1 31640:4 31925:1 31973:1 32018:1 32258:1 32292:1 32396:1 32514:1 32610:1 32983:1 33000:1 33051:1 33112:1 33149:1 33158:4 33230:1 33285:1 33289:1 33340:1 33401:1 33412:6 33418:3 33736:1 33755:1 33775:1 33796:1 33865:1 33931:1 33975:1 33979:1 34200:3 34340:1 34418:1 34481:1 34556:1 34616:1 34685:1 34801:1 34849:1 34990:10 35056:1 35189:1 35208:1 35239:2 35282:1 35408:4 35469:1 35511:1 35762:2 35900:1 35966:1 36028:2 36138:1 36139:5 36191:1 36447:1 36759:2 36826:1 36884:1 37019:1 37104:1 37142:1 37153:1 37389:4 37548:1 37674:1 37769:1 37850:1 37860:1 38009:1 38127:1 38261:1 38317:1 38329:3 38517:3 38608:1 38627:1 38641:2 38758:1 38838:1 38910:6 39065:3 39067:1 39122:2 39136:1 39504:1 39515:1 39516:2 39604:1 39949:1 39961:1 40186:1 40329:1 41161:1 41239:1 41255:1 41392:1 41590:1 41699:1 41735:1 41858:1 41888:1 41920:1 41932:1 42078:1 42173:1 42281:1 42626:1 42699:1 42712:1 43298:1 43361:1 43460:1 43691:1 43742:1 43758:1 43759:2 43906:2 44271:2 44384:1 44449:1 44688:4 45028:2 45195:1 45215:1 45249:1 45287:1 45503:3 45612:1 45897:1 45997:1 45998:1 46293:1 46783:1 47042:1 47136:1 47307:1 47528:3 47679:1 47727:3 47857:1 47930:1 48144:1 48159:1 48243:3 48422:2 48688:1 48809:7 49066:1 49144:1 49173:1 49215:1 49229:1 49243:1 49357:1 49443:1 49455:1 49653:2 49747:1 49770:1 50106:2 50458:1 50543:9 50638:1 50879:1 51020:1 51144:1 51205:2 51267:1 51468:1 51652:1 51782:1 51931:1 52774:1 52926:2 53031:1 53073:1 53158:1 53221:1 53322:2 53400:1 53457:1 53525:1 53655:1 53751:1 53890:1 53943:2 53969:1 53983:1 54012:3 54058:1 54075:1 54183:1 54227:1 54449:1 54457:1 54469:1 54699:1 54795:1 54857:1 54882:1 54904:3 55214:1 55356:1 55458:2 55627:1 55685:3 55766:1 56031:1 56102:1 56157:1 56392:2 56721:42 56914:1 57028:1 57198:1 57313:3 57549:1 57688:1 57697:2 57796:1 57943:1 57975:1 58103:1 58141:1 58163:2 58203:2 #
-0.0011175493031564015 144:3 284:2 411:1 600:14 688:1 805:1 879:5 918:1 1272:1 1384:2 1497:1 1531:1 1731:1 1805:1 1911:1 1977:2 2073:1 2321:1 2394:6 2811:1 3005:2 3227:1 3364:4 3480:1 3497:2 3517:1 3843:1 4022:2 4039:1 4278:2 4300:2 4626:1 4802:1 5107:1 5287:1 5479:1 5651:1 5937:1 6186:1 6439:1 6460:2 6648:1 6725:1 6831:1 7004:1 7188:1 7350:1 7402:1 7508:2 7631:3 7701:1 7982:1 8064:12 8214:4 8547:1 8597:1 8801:1 8850:2 9421:2 9575:1 9581:1 9862:1 9925:1 10055:1 10161:6 10225:2 10374:1 10444:1 11275:1 11353:1 11462:3 11541:2 11777:1 11942:1 12002:1 12010:1 12134:1 12882:1 13451:1 13750:1 13952:3 13982:1 14020:1 14088:4 14596:1 14755:2 14768:3 14830:1 14845:1 15051:2 15157:1 15256:1 15417:1 15502:1 15627:4 15721:1 15723:1 15822:1 15834:1 15849:1 15988:1 16773:1 16808:1 16830:1 17281:1 17324:3 17366:1 17447:1 17516:1 17553:1 17703:2 17734:1 18023:1 18132:1 18370:2 18398:2 18506:3 18571:1 18743:1 18764:6 18795:2 19282:1 19354:1 19730:1 19874:1 19987:2 20289:1 20510:1 20610:1 20927:1 21219:1 21231:2 21454:3 21586:2 21588:1 21684:1 21807:1 21939:1 22115:1 22130:1 22153:1 22202:1 22368:3 22378:1 22432:1 22477:1 22719:1 22737:1 22977:1 23102:1 23444:5 23746:2 23764:1 23823:1 23842:1 24184:1 24506:1 24594:1 24667:1 24681:3 24711:1 24852:2 25112:1 25210:1 25309:1 25370:1 25403:1 25916:1 25944:1 25965:1 26391:1 26760:1 26821:1 27613:1 27628:1 27659:1 27958:1 28238:3 28425:1 28454:1 28813:1 28875:2 28879:5 28957:1 29038:3 29223:1 29226:1 29419:1 29437:1 29610:1 29743:1 30017:1 30450:1 30457:2 30807:2 30812:1 31238:1 31357:2 31492:1 32122:2 32203:1 32248:1 32255:2 32487:1 32598:1 32610:2 32806:1 32990:1 33285:1 33291:1 33320:1 33398:1 33682:1 33849:1 33975:1 34200:1 34329:1 34340:1 34849:3 34990:3 35071:1 35100:1 35197:1 35239:1 35282:1 35346:1 35469:1 35511:2 35626:1 35705:1 35711:1 35823:1 35830:1 36133:2 36138:1 36257:1 36281:1 36403:1 36619:1 36747:1 36759:1 36815:1 37209:2 37389:2 37415:1 37472:1 37591:1 37770:1 37875:1 38263:1 38517:2 38910:4 39037:1 39300:1 39504:1 39512:1 39604:2 40266:3 40361:1 40729:2 40799:1 41140:1 41699:3 41858:3 42060:1 42075:1 42107:1 42173:1 42934:1 43595:1 43742:1 43759:1 43813:1 44044:2 44170:1 44182:1 44233:1 44426:1 44544:1 44618:1 44688:5 44810:1 45090:1 45485:1 45503:4 45565:1 45653:1 45750:1 45979:1 45992:1 46289:1 46356:1 46544:1 46645:1 46903:1 47058:1 47120:1 47204:1 47206:1 47503:1 47727:1 47828:1 47850:1 48243:2 48422:1 49173:1 49230:1 49243:1 49302:2 49653:1 50427:1 50498:1 50543:2 50997:2 51119:1 51563:1 51592:1 51618:1 51676:1 51815:1 51899:2 52010:1 52155:1 52459:2 52521:1 52774:1 53194:1 53400:2 53630:1 53950:1 54301:1 54309:1 54355:9 54449:2 54904:2 55055:1 55109:1 55458:1 55801:2 55818:2 55827:1 55860:1 56022:1 56026:1 56102:2 56257:1 56290:2 56368:1 56555:1 56631:1 56701:1 56721:32 56770:2 56926:1 57313:1 57600:1 58103:3 58203:1 #
-0.00051443083744634932 107:1 600:5 625:1 733:1 839:1 842:1 879:3 1046:2 1299:1 1545:1 1552:1 1672:1 1812:1 1911:1 1977:3 2021:1 2184:1 2259:1 2422:1 2708:1 2727:1 2844:2 2921:2 2994:1 3005:1 3094:1 3197:1 3359:5 3462:1 3800:1 4049:1 4052:1 4177:1 4193:2 4199:1 4225:1 4386:1 4478:1 4691:3 4737:1 5049:1 5115:1 5254:1 5332:10 5380:1 5484:1 5495:1 5568:1 5670:1 5777:1 5854:1 5937:2 6237:1 6382:1 6677:1 6990:2 6997:1 7131:1 7337:1 7430:1 7461:1 7631:5 7814:1 7862:1 7941:1 7979:1 8099:1 8190:1 8212:1 8214:1 8291:1 8597:2 8711:1 8732:1 9315:1 9465:1 9687:2 9700:1 9851:1 9925:3 9942:1 10161:2 10332:1 10574:1 10598:1 10627:1 10825:2 11301:1 11541:5 11623:1 11919:1 12002:1 12031:1 12213:1 12259:1 12263:1 12304:1 12498:3 12502:1 12564:1 13484:1 13593:1 13596:1 13605:1 13982:2 14088:1 14171:2 14283:1 14333:1 14755:1 14764:1 14768:1 14792:1 15197:1 15258:1 15417:3 15502:1 15504:1 15585:1 15660:1 15724:1 15805:1 15849:1 15902:2 15933:1 16648:1 16669:1 16800:1 17216:1 17267:2 17324:2 17516:1 17752:4 17812:1 17864:1 17867:1 18218:1 18398:4 18401:4 18424:2 18491:1 18506:1 18571:1 18764:1 18795:2 18887:1 19205:5 19352:1 19576:1 19686:1 20058:4 20428:1 20494:1 20701:1 20802:1 20843:1 20897:1 20927:1 21233:1 21387:1 21577:1 21586:1 21588:1 21658:1 21684:2 22153:1 22165:1 22196:1 22226:1 22603:1 22950:1 23037:1 23153:5 23235:1 23365:2 23498:1 24312:1 24506:1 24667:2 24703:1 24951:1 25069:1 25164:1 25252:1 25450:1 25465:3 25535:1 25553:1 25605:1 26286:1 26502:1 26506:1 26517:1 26770:1 26936:1 27124:1 27147:1 27370:1 27591:1 28003:1 28309:1 28350:1 28454:1 28569:1 28879:2 29149:2 29226:1 29240:1 29387:1 29419:1 29437:1 29503:1 29524:2 29679:1 29920:1 29977:1 30053:1 30315:1 30483:1 30545:1 30628:1 30692:1 30795:5 30936:1 31057:1 31272:6 31366:1 31809:1 31854:1 32252:1 32258:1 32526:5 32552:1 32674:1 33291:1 33540:2 33588:2 33755:1 33953:1 33975:1 34060:3 34085:1 34108:1 34272:1 34276:1 34278:1 34453:1 34590:1 34719:1 34849:4 34953:3 34990:5 35012:1 35058:1 35081:1 35189:1 35346:1 35382:1 35565:1 35960:1 36077:1 36139:2 36249:2 36257:1 36281:1 36301:1 36613:1 36805:1 36906:2 36982:1 36990:1 37000:1 37019:2 37104:3 37190:1 37239:1 37366:1 37389:2 37534:1 37710:2 37769:1 37941:1 37982:1 38172:1 38195:2 38444:1 38627:1 38910:7 38915:2 38962:1 39065:1 39219:1 39604:1 40029:1 40123:1 40131:1 40171:1 40361:1 40410:1 40580:4 40855:1 40966:1 41058:5 41255:1 41443:1 41699:4 41735:1 41785:5 41858:1 42075:1 42107:1 42240:1 42243:1 42281:1 42339:9 42427:1 42777:1 42957:1 43336:1 43416:1 43505:1 43742:4 44002:1 44181:1 44688:2 44788:1 45044:1 45237:1 45362:1 45502:2 45503:2 45586:2 45750:1 46187:1 46197:1 46302:1 46415:2 46631:1 46756:1 47023:1 47221:1 47242:1 47653:1 47742:1 47850:1 48095:1 48232:1 48421:1 48449:1 48523:1 48695:1 48991:1 49085:1 49187:1 49229:1 49243:1 49357:2 49595:2 49653:1 50106:2 50338:1 50543:8 50799:1 50800:1 50936:1 51141:1 51205:2 51240:1 51263:1 51367:1 51580:1 51652:2 51676:1 51784:1 51867:1 51873:1 51920:1 51976:1 52176:1 52428:2 52459:1 52478:1 52496:1 52568:1 52774:5 52949:1 53727:2 53778:2 54020:1 54439:1 54449:4 54546:1 54789:1 54847:1 54861:2 54904:1 54916:1 54958:1 55351:1 55362:1 55430:1 55685:3 55766:1 55798:1 56141:1 56721:35 56732:1 57360:1 57600:3 57644:1 57648:1 57659:1 57766:1 57825:1 58102:1 58135:1 58154:1 58184:1 #
0.0011175493031564015 600:2 879:1 884:1 923:2 1592:1 1674:1 1895:1 2674:1 3113:1 3154:1 3581:1 3601:1 3964:1 4298:1 4642:2 5042:1 5115:1 5506:2 5708:1 6276:1 6334:1 6990:2 7525:1 7603:1 7819:1 7918:1 7941:1 9560:1 9891:1 10085:1 10225:1 10450:1 10825:1 11304:1 11462:1 11623:2 11741:1 12694:2 12835:1 13941:1 14392:1 14835:3 14981:1 15153:1 15181:1 15627:1 16878:1 17752:1 17983:1 18506:1 18795:1 19078:1 19247:1 19486:1 20927:1 21543:1 21855:1 22467:1 22477:2 22603:1 23419:1 24388:1 24667:1 25868:1 25971:1 26253:1 27958:1 28251:1 28253:1 28324:1 28780:1 28971:1 29266:1 29743:1 30023:1 30096:1 30253:1 30875:1 30936:1 31151:1 32241:1 32474:1 32610:1 32833:1 33285:1 33320:1 33630:1 33923:1 34222:1 34864:1 34990:1 35051:1 36256:1 36844:1 37260:1 38221:1 38299:1 39225:1 39312:1 39604:1 40710:1 40855:1 41237:1 41699:1 41888:1 41934:1 42243:1 42989:1 44665:1 44688:1 45392:1 45750:1 46258:1 46538:1 47528:1 47840:1 47894:2 47912:1 49243:1 49455:1 49976:1 50202:1 50936:1 51064:1 51679:1 52428:1 52647:1 52916:1 53306:1 53943:1 54564:1 55646:1 55818:1 56016:1 56568:2 56688:1 56718:1 56721:4 57073:1 57313:1 57686:1 #
0.0011175493031564015 107:2 128:1 284:1 409:1 600:2 882:1 1468:1 1731:1 1941:1 2127:1 2226:2 2871:1 3027:1 3124:5 3364:1 3843:1 4122:1 5287:1 5369:1 5583:1 5605:1 5937:3 6047:1 6406:1 7631:2 7821:1 7878:1 10055:1 10094:1 10444:1 10507:1 11365:1 11541:2 12001:1 12558:1 12668:1 13938:1 13952:2 14051:1 14755:1 15417:1 16749:1 16963:1 17138:1 17463:1 17990:1 18142:1 18506:1 18957:1 19109:1 19112:1 19462:1 19556:1 19823:1 19916:1 20067:1 20897:1 21517:1 21586:2 21598:1 21705:1 21932:1 23153:1 23219:1 24187:1 24667:2 24995:1 25370:1 25603:1 26582:1 26675:1 27100:1 27828:1 28003:1 28386:1 28556:1 28769:1 28879:2 29610:1 29860:1 29866:1 30106:1 30142:1 30163:1 30188:2 30483:1 30692:1 31591:1 31971:4 32258:1 32272:2 32967:1 33000:1 33234:1 33320:2 33451:1 34846:3 34990:1 35346:1 35549:2 35940:1 36113:1 36316:1 36690:1 37108:1 37472:1 37806:1 37941:1 37982:1 38152:1 38195:1 38421:1 38758:1 38966:1 39102:1 39284:1 40535:1 40554:1 40683:1 40799:1 41255:1 41672:1 41699:2 42730:1 42754:4 42798:1 43660:1 43680:1 44051:1 44186:1 44633:1 44688:2 44861:1 45503:1 45731:1 47052:1 47059:2 47405:1 47765:1 48304:1 49187:1 49243:1 49474:4 49569:2 50091:1 50106:1 50456:1 50543:1 50557:1 50614:1 50641:1 50852:1 50933:1 51160:1 51240:1 53114:1 53386:1 53400:1 53530:1 53745:1 53864:1 54165:1 54309:1 54345:1 54449:2 54642:1 55068:1 55389:1 55603:1 55770:1 55818:2 55820:2 56258:3 56721:4 56778:2 56947:1 57072:2 57173:1 57952:1 #
0.0011175493031564015 78:1 292:2 600:1 879:1 2482:1 2811:1 3718:1 4716:1 5058:1 6134:1 6726:1 6990:1 10085:1 10489:1 10917:1 11462:1 11541:1 11915:1 12007:1 12792:1 17281:1 17624:1 17632:1 18370:1 20135:1 21586:1 23153:2 24326:1 24681:1 24708:1 24987:1 26428:1 26778:1 27734:1 28957:1 29038:1 29300:1 30053:1 31165:1 33387:1 33865:1 33951:1 37719:1 37941:1 38946:1 39495:1 40851:1 42281:1 43742:1 44853:1 45897:2 46314:1 46544:1 47379:1 49243:1 50543:1 51327:1 51641:1 51998:1 53482:1 54642:1 55983:1 56721:1 57952:1 57975:1 #
0.0011175493031564015 144:1 156:1 557:1 600:1 664:1 1408:2 1596:1 1921:1 1943:1 2082:1 2394:1 3269:1 3905:1 4331:1 4533:1 4631:1 4890:1 4970:1 5211:1 5240:1 5457:1 5479:1 5709:1 5991:1 6291:1 7065:1 7541:1 7686:1 7827:1 8597:1 8784:1 8838:1 9193:1 9919:1 10225:1 10596:1 10597:2 10813:1 11299:1 11362:1 11606:1 11920:1 12432:1 13372:2 13814:1 14227:1 14454:1 14549:1 14701:1 14863:1 15190:1 15276:1 15849:1 16274:1 16366:1 16803:1 17174:2 17198:2 17217:1 17260:1 17288:1 17560:1 18146:1 18368:1 18460:1 19477:1 20340:1 20349:1 20589:1 20802:1 21094:1 22368:1 22449:1 22477:1 22976:1 23260:1 23776:1 24461:1 24466:1 24515:1 24902:1 25094:1 25605:1 25891:1 26647:1 26714:1 26849:1 26962:1 27551:1 28098:1 28151:1 28177:2 28375:1 28454:1 28698:1 28845:1 29097:1 29413:1 29536:1 29790:1 30236:1 30307:1 30363:1 30831:1 30990:2 30999:1 31186:1 31251:2 31769:1 31841:1 31860:1 32020:1 32514:1 32683:1 32963:1 33996:1 34340:1 34849:1 35121:1 35933:1 36238:1 36559:1 37776:1 38084:1 38311:1 38313:1 38517:1 38522:2 38667:1 38691:1 39020:1 39065:1 39444:1 39935:1 40670:1 40982:1 41238:1 41353:1 42045:1 42981:1 43140:1 43873:1 44056:1 44498:1 44668:1 44726:1 44989:1 45264:1 45686:1 46811:1 46822:1 46878:1 47660:1 48631:1 49580:1 49914:1 50104:1 50207:1 50477:1 50654:1 50708:1 50849:1 51698:1 51940:1 52540:1 52547:1 52849:1 53890:1 55082:1 56721:2 57617:1 57770:1 57911:1 #
-0.0011175493031564015 600:2 696:1 1668:2 1674:1 1741:1 2075:3 2222:1 3197:1 3517:1 3678:1 4244:1 4300:1 5711:1 6747:1 7631:1 7819:1 8214:2 8488:1 8519:1 8571:1 8804:1 9082:1 10142:1 10238:1 10794:1 10825:1 11388:1 11541:1 11896:1 11984:1 12049:1 12458:1 13438:1 13938:1 14045:3 14160:5 14454:1 14534:1 15500:1 16014:3 16084:1 16199:2 17217:1 17281:1 17595:1 17614:1 17656:1 18328:1 18398:1 19174:1 19500:1 19647:1 19757:1 20176:3 20686:1 20927:1 21468:1 21545:1 21586:1 21598:1 21652:1 21700:1 22501:1 22981:1 23153:2 23267:1 23705:1 24331:1 24334:1 24667:3 24852:1 24902:1 25256:1 25370:1 25437:1 25570:1 26192:1 26383:1 26428:1 26542:1 26788:1 27958:3 28432:1 28526:1 28528:1 28879:2 28955:1 28957:2 29038:1 29388:1 29421:1 29563:1 29633:1 29866:1 30163:1 30253:1 30375:1 30690:1 30907:1 32258:1 32396:1 33986:1 34864:2 34953:1 35511:1 35616:1 36028:1 36218:1 36240:1 36311:1 36586:1 36952:1 37122:1 37389:1 37534:1 37982:1 38195:1 38288:1 38517:1 39065:3 39504:1 39705:1 40472:2 40813:1 41104:1 41935:1 42046:1 42656:1 42855:1 43148:1 44285:1 44688:1 44712:1 45503:2 45675:1 45750:1 45897:1 46049:1 46519:1 46544:1 47205:1 47405:1 47599:1 48761:1 48991:1 49675:1 50419:1 50907:1 51267:1 51652:1 51681:1 52373:1 52647:1 52806:1 53377:1 54747:1 54776:1 55788:1 55818:1 56419:1 56721:2 56947:1 57191:1 57313:2 58203:1 #
-0.0011175493031564015 107:1 272:1 359:4 600:2 1000:1 1088:1 1262:1 1911:2 1977:1 2394:2 2514:1 2725:1 3005:1 3352:2 3521:1 3601:2 3990:1 4300:1 4452:1 4810:1 5788:1 6237:1 6402:1 6460:1 7941:1 8052:1 8651:1 8846:1 8875:2 9338:1 9692:1 9815:1 10201:1 10215:1 10225:2 10238:1 10508:1 10704:1 10747:1 10808:1 10953:1 11065:1 12178:1 12882:1 13312:4 13332:1 14222:1 14227:5 14291:2 14472:1 14648:1 14755:1 14987:1 15341:1 15495:1 16253:1 16282:1 17281:1 17324:1 17851:1 18279:1 18336:1 18364:1 18764:1 19033:1 19354:1 19395:1 19542:1 20927:3 21009:1 21261:1 21586:2 21598:1 21684:1 22477:1 23153:2 23171:1 23552:1 24090:1 24388:1 24389:1 24432:1 24711:1 25370:1 26203:1 26343:1 26428:2 26692:1 27283:1 28026:1 28539:1 28634:1 28879:5 29339:1 29912:2 29955:2 30040:1 30142:2 30243:1 30483:1 30614:1 30692:1 30936:1 31769:1 32122:3 32188:1 32255:1 33217:1 33540:2 33865:1 34076:1 34453:1 34795:1 34849:1 34990:1 35353:1 35573:1 35771:1 35940:1 36035:1 36295:1 36844:1 37389:1 38195:1 38221:1 38641:1 38961:1 39065:1 39504:2 39604:1 39664:1 39742:1 40000:1 40146:1 40412:1 41149:1 41699:1 42212:1 42398:1 42404:1 43346:1 43500:1 43658:1 43742:1 43759:1 43839:1 43906:1 44285:1 44433:3 44688:1 44778:1 44976:1 45123:1 45440:1 45456:1 45731:2 45830:1 46544:1 46626:1 47059:1 47950:1 48036:1 48419:1 48422:2 48524:1 49030:1 49147:1 49528:1 49561:1 50106:1 50232:1 50543:1 51412:1 52084:1 52479:1 52775:1 54469:1 54573:1 55766:1 55804:2 55818:1 56587:1 56721:3 57088:2 #
0.00059346861577415095 225:1 310:2 348:1 349:1 355:1 487:1 524:1 586:1 600:15 822:1 879:5 884:1 1102:1 1180:1 1272:1 1275:1 1668:1 1911:1 1977:1 2527:1 2536:1 2547:1 2846:1 3132:1 3137:1 3352:3 3524:1 3581:1 3601:2 3613:1 3657:1 3777:1 3914:1 4004:1 4225:1 4233:1 4278:1 4374:1 4497:1 4636:1 4691:1 4780:5 5014:1 5191:1 5337:1 5478:1 5583:1 5717:1 5777:1 5789:4 5846:2 5879:1 5937:4 5965:1 6034:1 6052:1 6186:1 6291:1 6419:1 6460:1 6747:2 6814:1 6820:1 7170:1 7174:1 7207:1 7252:1 7263:1 7296:1 7461:1 7474:1 7631:5 7690:1 7745:1 7819:1 7939:1 7952:1 7967:1 7979:1 8214:1 8222:1 8510:1 8597:1 8619:1 8646:1 8876:1 8981:1 9315:1 9435:1 9641:1 9655:1 9711:1 9827:1 9946:1 9954:1 10142:2 10154:1 10161:3 10236:1 10450:1 10502:1 10558:1 10689:1 10831:1 10955:1 11217:1 11301:1 11376:1 11462:2 11510:1 11541:6 11742:1 11811:2 11823:1 11896:1 11959:1 12458:2 12482:1 12774:2 13084:1 13214:1 13272:1 13279:1 13354:1 13409:1 13417:1 13438:6 13484:1 13811:1 13938:1 13982:1 14114:1 14187:1 14258:1 14283:3 14464:1 14531:1 14549:1 14713:1 14768:1 14777:1 15041:1 15108:1 15233:1 15378:1 15417:3 15581:1 15627:1 15721:1 15849:1 15947:1 15988:1 16088:1 16272:1 16648:1 16778:1 16795:2 17198:2 17281:1 17301:5 17363:1 17862:1 17983:2 18010:1 18168:1 18328:1 18411:1 18506:1 18743:1 18764:5 18984:2 19037:2 19072:1 19154:2 19158:1 19200:1 19330:1 19524:1 19598:1 19623:1 19987:1 20143:2 20195:2 20289:1 20303:6 20329:1 20383:1 20395:1 20443:1 20617:1 20639:2 20927:5 21167:1 21261:2 21318:2 21389:1 21517:2 21586:1 21602:1 21700:4 21776:1 21912:1 21921:1 21987:1 22130:1 22184:1 22330:1 22368:2 22386:1 22477:2 22732:1 23015:1 23153:3 23254:1 23593:1 23609:1 23823:1 24326:2 24417:2 24641:1 24667:5 24681:1 24852:2 25162:2 25370:1 25465:4 25605:1 25916:2 25954:2 26422:1 26428:1 26734:1 27119:1 27176:1 27384:10 27388:1 27675:2 27804:1 27958:4 28003:2 28157:1 28177:1 28623:1 28634:1 28879:5 28957:1 29038:2 29137:2 29191:1 29231:1 29465:1 29497:1 29579:1 29610:3 29645:1 29677:8 29705:1 29809:1 29920:1 30045:1 30053:2 30106:1 30137:1 30163:2 30296:1 30417:1 30615:1 30795:4 31229:1 31272:1 31277:1 31284:1 31319:1 31492:1 31602:1 31612:1 31769:1 31854:1 31888:1 31959:1 31996:1 32122:2 32147:1 32258:1 32289:1 32499:1 32555:1 32666:1 32802:1 33295:1 33540:1 33865:1 33894:2 33928:1 33979:1 34133:1 34200:1 34229:1 34317:1 34418:1 34582:1 34731:1 34890:1 34953:1 34975:1 34990:11 35013:1 35339:1 35431:1 35469:1 35511:1 35525:1 35667:1 35794:4 36145:1 36218:1 36301:1 36401:1 36499:1 36613:1 36664:1 36733:1 36759:1 36822:1 36952:1 36984:1 36992:4 37050:1 37100:1 37128:1 37186:1 37298:1 37317:1 37340:1 37389:2 37567:1 37710:1 37769:2 37875:1 37950:1 38004:1 38221:1 38240:1 38371:1 38527:1 38650:1 38657:1 38910:15 39065:3 39087:1 39219:1 39293:1 39495:1 39504:1 39664:3 39949:1 40041:1 40061:1 40088:1 40115:1 40153:1 40472:1 40897:1 40939:1 41175:1 41253:1 41699:4 41858:1 42035:2 42173:1 42220:1 42671:1 42741:1 42897:1 42981:3 43346:1 43437:1 43742:5 43759:1 44243:1 44498:1 44523:1 44637:4 44688:6 44826:1 44918:1 45028:2 45108:1 45143:1 45249:1 45294:1 45503:1 45546:1 45731:2 45862:1 45979:5 46049:1 46183:1 46722:1 46753:1 47052:1 47059:1 47165:1 47180:9 47379:4 47528:1 47685:1 47801:4 47840:1 47959:1 48002:1 48079:1 48226:1 48243:2 48281:1 48422:2 48428:1 48445:1 49042:1 49073:1 49085:3 49143:3 49173:1 49229:1 49243:4 49434:3 49561:1 49653:3 49860:5 49949:1 50100:1 50106:1 50139:1 50419:1 50543:3 50567:1 50575:1 50591:1 50756:1 50879:1 51069:1 51129:1 51165:1 51169:1 51220:2 51267:1 51310:1 51370:1 51652:1 51725:1 51976:1 51998:1 52054:1 52176:1 52335:1 52400:1 52459:2 52489:1 52508:1 52695:1 52774:3 52806:1 52891:1 53187:1 53301:2 53655:1 53752:1 53789:1 53835:1 54309:2 54354:1 54449:1 54457:1 54573:1 54584:2 54588:1 54599:1 54714:9 54861:1 54919:12 55109:1 55530:1 55627:1 55685:2 55775:1 55783:1 55818:2 55859:1 55860:1 55909:1 55938:1 56016:1 56363:1 56571:1 56721:41 57205:1 57313:1 57523:1 57600:1 57705:2 57825:1 57908:1 57920:2 57952:1 58103:5 58203:1 58230:3 #
